{"learner":{"attributes":{"best_iteration":"192","best_score":"4.842686017546884","scikit_learn":"{\"_estimator_type\": \"regressor\"}"},"feature_names":[],"feature_types":[],"gradient_booster":{"model":{"cats":{"enc":[],"feature_segments":[],"sorted_idx":[]},"gbtree_model_param":{"num_parallel_tree":"1","num_trees":"243"},"iteration_indptr":[0,1,2,3,4,5,6,7,8,9,10,11,12,13,14,15,16,17,18,19,20,21,22,23,24,25,26,27,28,29,30,31,32,33,34,35,36,37,38,39,40,41,42,43,44,45,46,47,48,49,50,51,52,53,54,55,56,57,58,59,60,61,62,63,64,65,66,67,68,69,70,71,72,73,74,75,76,77,78,79,80,81,82,83,84,85,86,87,88,89,90,91,92,93,94,95,96,97,98,99,100,101,102,103,104,105,106,107,108,109,110,111,112,113,114,115,116,117,118,119,120,121,122,123,124,125,126,127,128,129,130,131,132,133,134,135,136,137,138,139,140,141,142,143,144,145,146,147,148,149,150,151,152,153,154,155,156,157,158,159,160,161,162,163,164,165,166,167,168,169,170,171,172,173,174,175,176,177,178,179,180,181,182,183,184,185,186,187,188,189,190,191,192,193,194,195,196,197,198,199,200,201,202,203,204,205,206,207,208,209,210,211,212,213,214,215,216,217,218,219,220,221,222,223,224,225,226,227,228,229,230,231,232,233,234,235,236,237,238,239,240,241,242,243],"tree_info":[0,0,0,0,0,0,0,0,0,0,0,0,0,0,0,0,0,0,0,0,0,0,0,0,0,0,0,0,0,0,0,0,0,0,0,0,0,0,0,0,0,0,0,0,0,0,0,0,0,0,0,0,0,0,0,0,0,0,0,0,0,0,0,0,0,0,0,0,0,0,0,0,0,0,0,0,0,0,0,0,0,0,0,0,0,0,0,0,0,0,0,0,0,0,0,0,0,0,0,0,0,0,0,0,0,0,0,0,0,0,0,0,0,0,0,0,0,0,0,0,0,0,0,0,0,0,0,0,0,0,0,0,0,0,0,0,0,0,0,0,0,0,0,0,0,0,0,0,0,0,0,0,0,0,0,0,0,0,0,0,0,0,0,0,0,0,0,0,0,0,0,0,0,0,0,0,0,0,0,0,0,0,0,0,0,0,0,0,0,0,0,0,0,0,0,0,0,0,0,0,0,0,0,0,0,0,0,0,0,0,0,0,0,0,0,0,0,0,0,0,0,0,0,0,0,0,0,0,0,0,0,0,0,0,0,0,0,0,0,0,0,0,0],"trees":[{"base_weights":[-7.779251E-1,2.0274816E0,-7.4911084E0,-4.049121E-1,1.3950356E1,-2.2533968E-1,-3.9121464E-1,2.3714605E1,-1.5824705E0,7.222613E0,7.8639627E-1,1.3032798E0,1.2266693E-1,-5.7960224E0,3.6146955E0,4.898201E-1,2.6895432E0,-3.1376266E0,-6.573765E0,1.8323204E1,-5.9734516E0,-7.800808E-2,4.1420097E0,-2.798056E-1,5.5485614E-2,-2.1360563E-1,-3.526983E-1,4.411691E-1,1.0505108E0,-3.177392E-1,1.1230608E-1,3.08992E-1,7.013931E-2],"categories":[],"categories_nodes":[],"categories_segments":[],"categories_sizes":[],"default_left":[0,0,0,0,0,0,0,0,0,0,0,0,0,0,0,0,0,0,0,0,0,0,0,0,0,0,0,0,0,0,0,0,0],"id":0,"left_children":[1,3,5,7,9,-1,-1,11,13,15,-1,-1,-1,17,19,-1,21,23,25,27,29,-1,31,-1,-1,-1,-1,-1,-1,-1,-1,-1,-1],"loss_changes":[6.135981E3,6.675907E3,6.019287E1,5.490739E3,3.5280518E2,0E0,0E0,3.8591748E2,4.0502805E3,9.032385E1,0E0,0E0,0E0,1.9026318E2,1.1814723E4,0E0,3.7324974E1,2.672606E2,5.607495E1,6.5698047E2,1.741272E2,0E0,1.3659294E1,0E0,0E0,0E0,0E0,0E0,0E0,0E0,0E0,0E0,0E0],"parents":[2147483647,0,0,1,1,2,2,3,3,4,4,7,7,8,8,9,9,13,13,14,14,16,16,17,17,18,18,19,19,20,20,22,22],"right_children":[2,4,6,8,10,-1,-1,12,14,16,-1,-1,-1,18,20,-1,22,24,26,28,30,-1,32,-1,-1,-1,-1,-1,-1,-1,-1,-1,-1],"split_conditions":[8.569486E-1,3.3919993E-1,-2.5172445E-1,-1.3866289E0,-5.618777E-2,-2.2533968E-1,-3.9121464E-1,1.184812E0,-5.237145E-1,2.6763338E-1,7.8639627E-1,1.3032798E0,1.2266693E-1,-7.476562E-1,-1.7854871E-1,4.898201E-1,5.117828E-1,-2.0932192E-2,-1.214046E0,-5.618777E-2,1.184812E0,-7.800808E-2,6.843657E-1,-2.798056E-1,5.5485614E-2,-2.1360563E-1,-3.526983E-1,4.411691E-1,1.0505108E0,-3.177392E-1,1.1230608E-1,3.08992E-1,7.013931E-2],"split_indices":[0,0,5,0,5,0,0,7,0,17,0,0,0,24,0,0,0,8,0,5,7,0,0,0,0,0,0,0,0,0,0,0,0],"split_type":[0,0,0,0,0,0,0,0,0,0,0,0,0,0,0,0,0,0,0,0,0,0,0,0,0,0,0,0,0,0,0,0,0],"sum_hessian":[3.24E2,2.29E2,9.5E1,1.91E2,3.8E1,1.1E1,8.4E1,8E0,1.83E2,9E0,2.9E1,7E0,1E0,1.01E2,8.2E1,5E0,4E0,2.4E1,7.7E1,3.2E1,5E1,1E0,3E0,1.5E1,9E0,1.5E1,6.2E1,8E0,2.4E1,4.8E1,2E0,1E0,2E0],"tree_param":{"num_deleted":"0","num_feature":"31","num_nodes":"33","size_leaf_vector":"1"}},{"base_weights":[-2.4039647E-2,-4.4961897E-1,3.930505E0,1.9724415E-1,-2.0229204E0,3.5294583E-1,2.5354524E0,-2.0380905E0,7.8572357E-1,-1.6908132E-1,-8.813514E-1,2.6308252E-2,1.6908152E-1,-3.5751305E0,-4.0841016E-1,1.7185421E-1,2.252872E0,1.1983935E-2,-1.2305461E0,-2.8336182E-1,-1.4732613E-1,-5.304966E-2,6.249648E-3,2.118542E0,-2.5577387E-1,1.4639534E0,1.4320563E-1,-4.2225074E-2,-7.060139E-2,7.6107524E-2,1.8612824E-1,-5.323739E-2,1.3479769E-2,9.086167E-2,5.535213E-2],"categories":[],"categories_nodes":[],"categories_segments":[],"categories_sizes":[],"default_left":[0,0,0,0,0,0,0,0,0,0,0,0,0,0,0,0,0,0,0,0,0,0,0,0,0,0,0,0,0,0,0,0,0,0,0],"id":1,"left_children":[1,3,5,7,9,-1,11,13,15,-1,17,-1,-1,19,21,23,25,-1,27,-1,-1,-1,-1,29,31,33,-1,-1,-1,-1,-1,-1,-1,-1,-1],"loss_changes":[5.3695245E2,2.934997E2,1.1739569E2,2.712683E2,1.2730835E2,0E0,3.7325638E1,1.0624989E2,1.4641675E2,0E0,1.869345E1,0E0,0E0,1.2233887E1,7.790593E0,9.710703E1,1.8953598E1,0E0,1.3297005E0,0E0,0E0,0E0,0E0,1.4422829E1,4.108802E1,8.8830566E-1,0E0,0E0,0E0,0E0,0E0,0E0,0E0,0E0,0E0],"parents":[2147483647,0,0,1,1,2,2,3,3,4,4,6,6,7,7,8,8,10,10,13,13,14,14,15,15,16,16,18,18,23,23,24,24,25,25],"right_children":[2,4,6,8,10,-1,12,14,16,-1,18,-1,-1,20,22,24,26,-1,28,-1,-1,-1,-1,30,32,34,-1,-1,-1,-1,-1,-1,-1,-1,-1],"split_conditions":[7.2907895E-1,3.1181613E-1,-2.5460443E-1,-1.8071386E-1,-4.4514874E-1,3.5294583E-1,-1.7876075E-1,-1.3127985E-2,4.983223E-2,-1.6908132E-1,-3.6408618E-2,2.6308252E-2,1.6908152E-1,-2.8473923E0,4.143962E-2,-1.2376674E-1,-1.4186943E-1,1.1983935E-2,-9.032434E-3,-2.8336182E-1,-1.4732613E-1,-5.304966E-2,6.249648E-3,-1.8673632E-1,-6.5503913E-1,-2.4176435E-1,1.4320563E-1,-4.2225074E-2,-7.060139E-2,7.6107524E-2,1.8612824E-1,-5.323739E-2,1.3479769E-2,9.086167E-2,5.535213E-2],"split_indices":[5,10,17,9,3,0,1,1,3,0,1,0,0,2,1,22,1,0,1,0,0,0,0,1,13,1,0,0,0,0,0,0,0,0,0],"split_type":[0,0,0,0,0,0,0,0,0,0,0,0,0,0,0,0,0,0,0,0,0,0,0,0,0,0,0,0,0,0,0,0,0,0,0],"sum_hessian":[3.17E2,2.87E2,3E1,2.04E2,8.3E1,8E0,2.2E1,4.2E1,1.62E2,3.7E1,4.6E1,7E0,1.5E1,2.1E1,2.1E1,1.15E2,4.7E1,1.1E1,3.5E1,3E0,1.8E1,9E0,1.2E1,2E1,9.5E1,2.2E1,2.5E1,1.3E1,2.2E1,1.6E1,4E0,3.7E1,5.8E1,9E0,1.3E1],"tree_param":{"num_deleted":"0","num_feature":"31","num_nodes":"35","size_leaf_vector":"1"}},{"base_weights":[-5.5271976E-2,2.3757498E1,-9.167364E-1,1.2820057E0,1.23283386E-1,1.4644936E0,-6.969907E0,-5.6590757E0,6.7672796E0,-2.0728953E-1,-3.6434755E-1,-3.3841298E0,-6.4342866E0,1.777766E1,2.3371594E0,-5.440732E0,2.9753232E0,-5.0078135E0,-6.9540386E0,1.8515179E1,3.4932225E0,-5.4943404E0,1.2920039E1,-1.356534E-1,-2.8812462E-1,-4.2345367E-2,6.4771765E-1,-9.84108E-2,-2.6066813E-1,-3.579959E-1,-1.875747E-1,3.7879488E-1,9.481069E-1,3.7282085E-1,-1.1082917E-1,-2.9749998E-1,-8.25003E-2,3.0073103E-1,7.1213216E-1],"categories":[],"categories_nodes":[],"categories_segments":[],"categories_sizes":[],"default_left":[0,0,0,0,0,0,0,0,0,0,0,0,0,0,0,0,0,0,0,0,0,0,0,0,0,0,0,0,0,0,0,0,0,0,0,0,0,0,0],"id":2,"left_children":[1,3,5,-1,-1,7,9,11,13,-1,-1,15,17,19,21,23,25,27,29,31,33,35,37,-1,-1,-1,-1,-1,-1,-1,-1,-1,-1,-1,-1,-1,-1,-1,-1],"loss_changes":[6.463129E3,3.77708E2,4.3920605E3,0E0,0E0,8.310971E3,4.6791016E1,1.4400049E2,6.1043916E3,0E0,0E0,3.562384E2,1.6333008E1,3.14583E2,7.6130513E3,1.9190063E0,2.7796622E2,3.484314E0,4.787842E0,2.258496E1,8.4414986E1,8.302295E1,2.7052783E2,0E0,0E0,0E0,0E0,0E0,0E0,0E0,0E0,0E0,0E0,0E0,0E0,0E0,0E0,0E0,0E0],"parents":[2147483647,0,0,1,1,2,2,5,5,6,6,7,7,8,8,11,11,12,12,13,13,14,14,15,15,16,16,17,17,18,18,19,19,20,20,21,21,22,22],"right_children":[2,4,6,-1,-1,8,10,12,14,-1,-1,16,18,20,22,24,26,28,30,32,34,36,38,-1,-1,-1,-1,-1,-1,-1,-1,-1,-1,-1,-1,-1,-1,-1,-1],"split_conditions":[-1.3866289E0,1.184812E0,8.569486E-1,1.2820057E0,1.23283386E-1,-5.237145E-1,-2.5172445E-1,-7.476562E-1,-1.7854871E-1,-2.0728953E-1,-3.6434755E-1,-2.0932192E-2,6.326571E-3,1.184812E0,3.3919993E-1,-1.214046E0,-6.9629735E-1,-3.3610985E-1,1.5677543E-1,-4.3438435E-1,-3.511316E-1,1.2345396E0,-5.618777E-2,-1.356534E-1,-2.8812462E-1,-4.2345367E-2,6.4771765E-1,-9.84108E-2,-2.6066813E-1,-3.579959E-1,-1.875747E-1,3.7879488E-1,9.481069E-1,3.7282085E-1,-1.1082917E-1,-2.9749998E-1,-8.25003E-2,3.0073103E-1,7.1213216E-1],"split_indices":[0,7,0,0,0,0,5,24,0,0,0,8,5,7,0,0,0,20,17,5,0,12,5,0,0,0,0,0,0,0,0,0,0,0,0,0,0,0,0],"split_type":[0,0,0,0,0,0,0,0,0,0,0,0,0,0,0,0,0,0,0,0,0,0,0,0,0,0,0,0,0,0,0,0,0,0,0,0,0,0,0],"sum_hessian":[3.13E2,1E1,3.03E2,9E0,1E0,2.18E2,8.5E1,9.3E1,1.25E2,1E1,7.5E1,2.5E1,6.8E1,3.5E1,9E1,1.9E1,6E0,2.1E1,4.7E1,3.3E1,2E0,5.2E1,3.8E1,3E0,1.6E1,5E0,1E0,2E0,1.9E1,4.3E1,4E0,2E0,3.1E1,1E0,1E0,4.6E1,6E0,7E0,3.1E1],"tree_param":{"num_deleted":"0","num_feature":"31","num_nodes":"39","size_leaf_vector":"1"}},{"base_weights":[-1.1196107E-1,2.350476E1,-1.0680526E0,1.20201305E-1,1.2531409E0,1.3034016E0,-6.7233377E0,-5.521692E0,6.7209687E0,-3.5115257E-1,-5.0510597E0,-1.106698E0,-5.8386946E0,1.6463392E1,2.6859071E0,-2.7536044E-1,-1.3818161E-1,-3.000225E-1,3.0296433E0,-4.1161036E0,-6.220203E0,1.8010317E1,7.260812E0,-4.7105846E0,1.2234199E1,2.8096458E-1,-1.8322372E-1,-1.309382E-1,-2.36046E-1,-3.2511878E-1,-2.0984666E-1,9.247409E-1,3.6616847E-1,1.3779525E-1,6.17436E-1,-1.0003914E-1,-2.8281403E-1,6.3186437E-1,-8.715611E-2],"categories":[],"categories_nodes":[],"categories_segments":[],"categories_sizes":[],"default_left":[0,0,0,0,0,0,0,0,0,0,0,0,0,0,0,0,0,0,0,0,0,0,0,0,0,0,0,0,0,0,0,0,0,0,0,0,0,0,0],"id":3,"left_children":[1,3,5,-1,-1,7,9,11,13,-1,15,17,19,21,23,-1,-1,-1,25,27,29,31,33,35,37,-1,-1,-1,-1,-1,-1,-1,-1,-1,-1,-1,-1,-1,-1],"loss_changes":[7.5441606E3,3.6713867E2,4.313775E3,0E0,0E0,8.430527E3,1.2140137E1,1.3489453E2,4.9483135E3,0E0,3.561432E0,1.8011705E2,3.617212E1,3.9595215E2,6.484401E3,0E0,0E0,0E0,1.072688E2,5.749359E0,1.552832E1,2.506836E1,1.2641199E2,1.21940796E2,2.4739258E2,0E0,0E0,0E0,0E0,0E0,0E0,0E0,0E0,0E0,0E0,0E0,0E0,0E0,0E0],"parents":[2147483647,0,0,1,1,2,2,5,5,6,6,7,7,8,8,10,10,11,11,12,12,13,13,14,14,18,18,19,19,20,20,21,21,22,22,23,23,24,24],"right_children":[2,4,6,-1,-1,8,10,12,14,-1,16,18,20,22,24,-1,-1,-1,26,28,30,32,34,36,38,-1,-1,-1,-1,-1,-1,-1,-1,-1,-1,-1,-1,-1,-1],"split_conditions":[-1.3866289E0,-6.569265E-1,8.569486E-1,1.20201305E-1,1.2531409E0,-5.237145E-1,1.6145279E-1,-3.840804E-1,-1.7854871E-1,-3.5115257E-1,6.003987E-1,4.0271852E-2,-1.214046E0,8.7650704E-1,3.3919993E-1,-2.7536044E-1,-1.3818161E-1,-3.000225E-1,-8.688803E-1,-6.846402E-1,1.6145279E-1,6.886008E-1,9.212041E-2,-7.8177977E-1,6.886008E-1,2.8096458E-1,-1.8322372E-1,-1.309382E-1,-2.36046E-1,-3.2511878E-1,-2.0984666E-1,9.247409E-1,3.6616847E-1,1.3779525E-1,6.17436E-1,-1.0003914E-1,-2.8281403E-1,6.3186437E-1,-8.715611E-2],"split_indices":[0,3,0,0,0,0,3,20,0,0,2,1,0,7,0,0,0,0,0,18,3,17,1,24,17,0,0,0,0,0,0,0,0,0,0,0,0,0,0],"split_type":[0,0,0,0,0,0,0,0,0,0,0,0,0,0,0,0,0,0,0,0,0,0,0,0,0,0,0,0,0,0,0,0,0,0,0,0,0,0,0],"sum_hessian":[3.32E2,1.2E1,3.2E2,1E0,1.1E1,2.26E2,9.4E1,1E2,1.26E2,7.7E1,1.7E1,7E0,9.3E1,3.6E1,9E1,1.3E1,4E0,3E0,4E0,1.9E1,7.4E1,3E1,6E0,5.1E1,3.9E1,3E0,1E0,7E0,1.2E1,6.3E1,1.1E1,2.8E1,2E0,4E0,2E0,1.4E1,3.7E1,3.8E1,1E0],"tree_param":{"num_deleted":"0","num_feature":"31","num_nodes":"39","size_leaf_vector":"1"}},{"base_weights":[-9.578001E-2,-5.6363195E-1,2.8659742E0,-7.060968E-1,4.9173728E-1,4.0678663E0,-4.39188E-2,-2.4154703E-1,-5.0925237E-1,1.3072374E-1,2.4039248E-1,-8.485359E-1,3.8760037E0,-6.5375024E-1,-2.57261E-1,1.4287664E-1,2.3043607E-1,-1.06646694E-1,-1.9148765E-2],"categories":[],"categories_nodes":[],"categories_segments":[],"categories_sizes":[],"default_left":[0,0,0,0,0,0,0,0,0,0,0,0,0,0,0,0,0,0,0],"id":4,"left_children":[1,3,5,7,-1,9,-1,-1,11,-1,-1,13,15,17,-1,-1,-1,-1,-1],"loss_changes":[4.6719794E2,4.3803262E2,2.1058719E2,2.313822E2,0E0,2.507196E1,0E0,0E0,4.139342E2,0E0,0E0,2.1172795E2,1.7554626E0,9.8113045E1,0E0,0E0,0E0,0E0,0E0],"parents":[2147483647,0,0,1,1,2,2,3,3,5,5,8,8,11,11,12,12,13,13],"right_children":[2,4,6,8,-1,10,-1,-1,12,-1,-1,14,16,18,-1,-1,-1,-1,-1],"split_conditions":[1.6145279E-1,1.3950882E0,2.2277996E-1,-1.4008752E0,4.9173728E-1,-2.4176435E-1,-4.39188E-2,-2.4154703E-1,7.2907895E-1,1.3072374E-1,2.4039248E-1,1.6884179E0,-1.0293188E0,-9.598414E-1,-2.57261E-1,1.4287664E-1,2.3043607E-1,-1.06646694E-1,-1.9148765E-2],"split_indices":[3,5,1,15,0,1,0,0,5,0,0,12,2,14,0,0,0,0,0],"split_type":[0,0,0,0,0,0,0,0,0,0,0,0,0,0,0,0,0,0,0],"sum_hessian":[3.35E2,2.9E2,4.5E1,2.87E2,3E0,3.4E1,1.1E1,1.2E1,2.75E2,1.3E1,2.1E1,2.56E2,1.9E1,2.46E2,1E1,1E1,9E0,3.7E1,2.09E2],"tree_param":{"num_deleted":"0","num_feature":"31","num_nodes":"19","size_leaf_vector":"1"}},{"base_weights":[2.6777044E-1,2.2130653E1,-5.4029834E-1,1.1857312E0,1.1767502E-1,1.7984993E0,-6.3940573E0,-4.9571524E0,6.9152083E0,-3.7820733E0,-3.3315933E-1,-2.393832E0,-5.682313E0,1.5724723E1,2.9570868E0,-1.5865021E0,-2.04685E-1,-2.4213825E-1,3.1093798E0,-4.2581882E0,-6.236402E0,7.205681E0,8.9477634E-1,-4.631405E0,1.1888621E1,-1.08981326E-1,-1.0006333E-2,-5.2158358E-3,6.401314E-1,-2.2672914E-1,-8.3673574E-2,-3.197736E-1,-1.6992089E-1,5.2286905E-1,1.647492E-1,-2.555761E-1,-8.930588E-3,2.675438E-1,6.615041E-1],"categories":[],"categories_nodes":[],"categories_segments":[],"categories_sizes":[],"default_left":[0,0,0,0,0,0,0,0,0,0,0,0,0,0,0,0,0,0,0,0,0,0,0,0,0,0,0,0,0,0,0,0,0,0,0,0,0,0,0],"id":5,"left_children":[1,3,5,-1,-1,7,9,11,13,15,-1,17,19,21,23,25,-1,-1,27,29,31,33,-1,35,37,-1,-1,-1,-1,-1,-1,-1,-1,-1,-1,-1,-1,-1,-1],"loss_changes":[5.947973E3,3.20104E2,4.460996E3,0E0,0E0,8.088322E3,4.017505E1,1.7413818E2,4.5910947E3,1.0315094E0,0E0,3.3850592E2,3.499341E1,6.292705E2,6.3583105E3,2.0306778E0,0E0,0E0,2.5054477E2,1.0271515E1,2.6433105E0,9.2707214E1,0E0,1.0811792E2,3.0632275E2,0E0,0E0,0E0,0E0,0E0,0E0,0E0,0E0,0E0,0E0,0E0,0E0,0E0,0E0],"parents":[2147483647,0,0,1,1,2,2,5,5,6,6,7,7,8,8,9,9,11,11,12,12,13,13,14,14,15,15,18,18,19,19,20,20,21,21,23,23,24,24],"right_children":[2,4,6,-1,-1,8,10,12,14,16,-1,18,20,22,24,26,-1,-1,28,30,32,34,-1,36,38,-1,-1,-1,-1,-1,-1,-1,-1,-1,-1,-1,-1,-1,-1],"split_conditions":[-1.3866289E0,1.184812E0,8.569486E-1,1.1857312E0,1.1767502E-1,-5.237145E-1,-2.5172445E-1,-7.476562E-1,-1.7854871E-1,-1.4186943E-1,-3.3315933E-1,-2.0932192E-2,6.326571E-3,-5.618777E-2,3.3919993E-1,1.0295315E0,-2.04685E-1,-2.4213825E-1,-6.9629735E-1,7.603992E-2,1.4401105E-1,-4.9597573E-1,8.9477634E-1,1.2345396E0,-5.618777E-2,-1.08981326E-1,-1.0006333E-2,-5.2158358E-3,6.401314E-1,-2.2672914E-1,-8.3673574E-2,-3.197736E-1,-1.6992089E-1,5.2286905E-1,1.647492E-1,-2.555761E-1,-8.930588E-3,2.675438E-1,6.615041E-1],"split_indices":[0,7,0,0,0,0,5,24,0,1,0,8,5,5,0,0,0,0,0,1,1,11,0,12,5,0,0,0,0,0,0,0,0,0,0,0,0,0,0],"split_type":[0,0,0,0,0,0,0,0,0,0,0,0,0,0,0,0,0,0,0,0,0,0,0,0,0,0,0,0,0,0,0,0,0,0,0,0,0,0,0],"sum_hessian":[3.35E2,1.1E1,3.24E2,1E1,1E0,2.32E2,9.2E1,1E2,1.32E2,1E1,8.2E1,2.3E1,7.7E1,4E1,9.2E1,2E0,8E0,1.6E1,7E0,2.4E1,5.3E1,9E0,3.1E1,5E1,4.2E1,1E0,1E0,6E0,1E0,2.1E1,3E0,4.9E1,4E0,4E0,5E0,4.5E1,5E0,8E0,3.4E1],"tree_param":{"num_deleted":"0","num_feature":"31","num_nodes":"39","size_leaf_vector":"1"}},{"base_weights":[4.3849027E-1,2.1005724E1,-3.6950088E-1,1.1473312E-1,1.1249062E0,1.7181875E0,-5.9992924E0,-4.890476E0,6.276675E0,-2.643304E-1,-3.4354544E-1,-3.1656394E0,-5.715137E0,1.4677801E1,3.007414E0,2.9172027E0,-4.1388025E0,-3.81604E0,-6.1499753E0,7.034341E0,8.441701E-1,-4.1170697E0,1.1682749E1,2.713421E-1,-1.7803383E-1,-2.1888721E-1,-8.053589E-2,-6.815415E-2,-2.1805559E-1,-3.1691638E-1,-1.6312401E-1,4.3947154E-1,-2.1903668E-1,1.5959215E-1,-2.3047955E-1,3.5248375E-1,6.5999246E-1],"categories":[],"categories_nodes":[],"categories_segments":[],"categories_sizes":[],"default_left":[0,0,0,0,0,0,0,0,0,0,0,0,0,0,0,0,0,0,0,0,0,0,0,0,0,0,0,0,0,0,0,0,0,0,0,0,0],"id":6,"left_children":[1,3,5,-1,-1,7,9,11,13,-1,-1,15,17,19,21,23,25,27,29,31,-1,33,35,-1,-1,-1,-1,-1,-1,-1,-1,-1,-1,-1,-1,-1,-1],"loss_changes":[5.275713E3,2.834663E2,3.6068022E3,0E0,0E0,6.7788115E3,1.5234863E1,1.1276929E2,3.6087651E3,0E0,0E0,2.0150092E2,2.6905273E1,5.0499805E2,6.0434053E3,1.0060891E2,9.862488E0,1.2773972E1,5.42688E0,2.3884897E2,0E0,2.0910205E2,2.1621436E2,0E0,0E0,0E0,0E0,0E0,0E0,0E0,0E0,0E0,0E0,0E0,0E0,0E0,0E0],"parents":[2147483647,0,0,1,1,2,2,5,5,6,6,7,7,8,8,11,11,12,12,13,13,14,14,15,15,16,16,17,17,18,18,19,19,21,21,22,22],"right_children":[2,4,6,-1,-1,8,10,12,14,-1,-1,16,18,20,22,24,26,28,30,32,-1,34,36,-1,-1,-1,-1,-1,-1,-1,-1,-1,-1,-1,-1,-1,-1],"split_conditions":[-1.3866289E0,-6.569265E-1,8.569486E-1,1.1473312E-1,1.1249062E0,-5.237145E-1,1.3582698E-1,-2.3005959E-2,-1.7854871E-1,-2.643304E-1,-3.4354544E-1,-3.840804E-1,-1.214046E0,-5.618777E-2,3.3919993E-1,-8.688803E-1,7.603992E-2,1.3727063E-1,3.4598227E0,-1.4712048E-1,8.441701E-1,-4.3438435E-1,-7.476562E-1,2.713421E-1,-1.7803383E-1,-2.1888721E-1,-8.053589E-2,-6.815415E-2,-2.1805559E-1,-3.1691638E-1,-1.6312401E-1,4.3947154E-1,-2.1903668E-1,1.5959215E-1,-2.3047955E-1,3.5248375E-1,6.5999246E-1],"split_indices":[0,3,0,0,0,0,5,5,0,0,0,20,0,5,0,0,1,22,1,5,0,5,24,0,0,0,0,0,0,0,0,0,0,0,0,0,0],"split_type":[0,0,0,0,0,0,0,0,0,0,0,0,0,0,0,0,0,0,0,0,0,0,0,0,0,0,0,0,0,0,0,0,0,0,0,0,0],"sum_hessian":[3.16E2,1.1E1,3.05E2,1E0,1E1,2.23E2,8.2E1,9.1E1,1.32E2,4.9E1,3.3E1,3.1E1,6E1,3.6E1,9.6E1,4E0,2.7E1,1.3E1,4.7E1,9E0,2.7E1,5.3E1,4.3E1,3E0,1E0,2.4E1,3E0,3E0,1E1,4.3E1,4E0,8E0,1E0,3E0,5E1,1.2E1,3.1E1],"tree_param":{"num_deleted":"0","num_feature":"31","num_nodes":"37","size_leaf_vector":"1"}},{"base_weights":[-6.777094E-2,2.1347969E0,-5.751088E0,-2.3244236E0,5.862884E0,-1.9234613E-1,-6.0398397E0,1.927005E1,-4.439476E0,1.4478314E1,2.0533178E0,-3.0606344E-1,-1.4913683E-1,1.0456995E0,1.1186486E-1,-2.5839782E0,-5.0158377E0,7.045163E0,8.2045317E-1,-4.6217747E0,1.0846482E1,2.567276E0,-4.6169286E0,-5.222126E0,-2.60962E0,8.777118E0,-2.1356069E-1,2.4421692E-2,-5.702853E0,1.1328562E1,-1.9886532E-1,-1.7076187E-1,1.9549058E-1,-1.1197758E-1,-2.4613574E-1,-2.7375078E-1,-1.591288E-1,-3.872172E-2,-1.5461382E-1,1.4619929E-1,5.0158644E-1,-1.484906E-1,2.105732E-1,-1.4892335E-1,-3.219084E-1,-1.1417542E-1,5.8734334E-1],"categories":[],"categories_nodes":[],"categories_segments":[],"categories_sizes":[],"default_left":[0,0,0,0,0,0,0,0,0,0,0,0,0,0,0,0,0,0,0,0,0,0,0,0,0,0,0,0,0,0,0,0,0,0,0,0,0,0,0,0,0,0,0,0,0,0,0],"id":7,"left_children":[1,3,5,7,9,-1,11,13,15,17,19,-1,-1,-1,-1,21,23,25,-1,27,29,31,33,35,37,39,-1,41,43,45,-1,-1,-1,-1,-1,-1,-1,-1,-1,-1,-1,-1,-1,-1,-1,-1,-1],"loss_changes":[4.168217E3,4.0034746E3,2.7899658E1,5.1096284E3,4.2698306E3,0E0,1.407959E0,2.3321777E2,9.505249E1,4.5845605E2,5.4500864E3,0E0,0E0,0E0,0E0,2.841313E2,2.409668E1,2.334834E2,0E0,2.6635327E2,3.3090674E2,7.760684E1,2.7877502E0,1.8164185E1,4.691345E0,3.6758057E1,0E0,1.5041405E2,6.696521E1,2.4888965E2,0E0,0E0,0E0,0E0,0E0,0E0,0E0,0E0,0E0,0E0,0E0,0E0,0E0,0E0,0E0,0E0,0E0],"parents":[2147483647,0,0,1,1,2,2,3,3,4,4,6,6,7,7,8,8,9,9,10,10,15,15,16,16,17,17,19,19,20,20,21,21,22,22,23,23,24,24,25,25,27,27,28,28,29,29],"right_children":[2,4,6,8,10,-1,12,14,16,18,20,-1,-1,-1,-1,22,24,26,-1,28,30,32,34,36,38,40,-1,42,44,46,-1,-1,-1,-1,-1,-1,-1,-1,-1,-1,-1,-1,-1,-1,-1,-1,-1],"split_conditions":[8.569486E-1,-5.237145E-1,-9.871693E-1,-1.3866289E0,-1.7854871E-1,-1.9234613E-1,1.1116914E0,8.639712E-2,-7.476562E-1,-5.618777E-2,3.3919993E-1,-3.0606344E-1,-1.4913683E-1,1.0456995E0,1.1186486E-1,-4.4191012E-1,1.4401105E-1,-1.4712048E-1,8.2045317E-1,-1.4712048E-1,1.184812E0,-1.214046E0,-1.214046E0,1.1393499E0,-1.214046E0,-6.569265E-1,-2.1356069E-1,1.6661705E-1,-5.965828E-3,-4.3438435E-1,-1.9886532E-1,-1.7076187E-1,1.9549058E-1,-1.1197758E-1,-2.4613574E-1,-2.7375078E-1,-1.591288E-1,-3.872172E-2,-1.5461382E-1,1.4619929E-1,5.0158644E-1,-1.484906E-1,2.105732E-1,-1.4892335E-1,-3.219084E-1,-1.1417542E-1,5.8734334E-1],"split_indices":[0,0,26,0,0,0,7,7,24,5,0,0,0,0,0,13,1,5,0,5,7,0,0,27,0,3,0,0,0,5,0,0,0,0,0,0,0,0,0,0,0,0,0,0,0,0,0],"split_type":[0,0,0,0,0,0,0,0,0,0,0,0,0,0,0,0,0,0,0,0,0,0,0,0,0,0,0,0,0,0,0,0,0,0,0,0,0,0,0,0,0,0,0,0,0,0,0],"sum_hessian":[3.31E2,2.39E2,9.2E1,1.09E2,1.3E2,1.4E1,7.8E1,9E0,1E2,3.9E1,9.1E1,7.5E1,3E0,8E0,1E0,2.5E1,7.5E1,9E0,3E1,5.2E1,3.9E1,7E0,1.8E1,6.8E1,7E0,8E0,1E0,1E1,4.2E1,3.8E1,1E0,1E0,6E0,3E0,1.5E1,5.9E1,9E0,2E0,5E0,2E0,6E0,6E0,4E0,1E1,3.2E1,1E0,3.7E1],"tree_param":{"num_deleted":"0","num_feature":"31","num_nodes":"47","size_leaf_vector":"1"}},{"base_weights":[9.512927E-3,-1.2129892E-1,3.5358837E-1,1.9824423E0,-4.9434972E-1,-2.380539E-1,2.687668E0,-2.1898515E0,2.7829405E-2,7.8887E-2,1.521734E-1,-1.2549893E0,-2.0444249E-1,-1.20324306E-1,1.5162835E-1,-5.02672E-2,-7.351423E-2,-1.0067421E0,1.9159931E-1,-6.4103894E-2,-3.6733415E-2,3.5380635E-2,-3.9321827E-3],"categories":[],"categories_nodes":[],"categories_segments":[],"categories_sizes":[],"default_left":[0,0,0,0,0,0,0,0,0,0,0,0,0,0,0,0,0,0,0,0,0,0,0],"id":8,"left_children":[1,3,-1,5,7,-1,9,11,13,-1,-1,15,-1,17,-1,-1,-1,19,21,-1,-1,-1,-1],"loss_changes":[3.0479672E2,2.5525598E2,0E0,2.458257E2,2.444191E2,0E0,1.2969238E1,1.1026312E2,9.473944E1,0E0,0E0,9.404907E-1,0E0,5.63213E1,0E0,0E0,0E0,3.0284157E0,2.1112446E1,0E0,0E0,0E0,0E0],"parents":[2147483647,0,0,1,1,3,3,4,4,6,6,7,7,8,8,11,11,13,13,17,17,18,18],"right_children":[2,4,-1,6,8,-1,10,12,14,-1,-1,16,-1,18,-1,-1,-1,20,22,-1,-1,-1,-1],"split_conditions":[1.3950882E0,-2.5172445E-1,3.5358837E-1,-3.0857859E0,-4.454768E-1,-2.380539E-1,-5.02098E-1,-9.032434E-3,7.920423E-1,7.8887E-2,1.521734E-1,-7.140653E-2,-2.0444249E-1,-4.7469547E-1,1.5162835E-1,-5.02672E-2,-7.351423E-2,3.479839E-2,-2.636422E-1,-6.4103894E-2,-3.6733415E-2,3.5380635E-2,-3.9321827E-3],"split_indices":[5,5,0,9,26,0,3,1,5,0,0,1,0,19,0,0,0,1,20,0,0,0,0],"split_type":[0,0,0,0,0,0,0,0,0,0,0,0,0,0,0,0,0,0,0,0,0,0,0],"sum_hessian":[3.28E2,3.23E2,5E0,4.8E1,2.75E2,4E0,4.4E1,6.4E1,2.11E2,1.2E1,3.2E1,4.4E1,2E1,2.02E2,9E0,2.3E1,2.1E1,5.2E1,1.5E2,2.4E1,2.8E1,5.1E1,9.9E1],"tree_param":{"num_deleted":"0","num_feature":"31","num_nodes":"23","size_leaf_vector":"1"}},{"base_weights":[-1.9855593E-1,1.9348557E1,-8.656978E-1,1.0423373E0,1.09166525E-1,1.1239932E0,-5.425032E0,-4.215287E0,5.5069175E0,-4.571619E0,-3.0460295E-1,-2.4454384E0,-4.758155E0,1.308663E1,2.2574143E0,-1.3720627E-1,-2.3619206E-1,-4.3833833E0,1.702167E0,-5.181157E0,-1.5970957E-1,7.121213E0,7.5161475E-1,-3.9078255E0,1.0103685E1,-1.072526E-1,-2.3440233E-1,-1.1724199E-2,2.8268155E-1,-1.7128338E-1,-2.7560446E-1,4.7183162E-1,1.2276917E-1,1.5122958E-1,-2.2073367E-1,3.4851763E-1,6.1040324E-1],"categories":[],"categories_nodes":[],"categories_segments":[],"categories_sizes":[],"default_left":[0,0,0,0,0,0,0,0,0,0,0,0,0,0,0,0,0,0,0,0,0,0,0,0,0,0,0,0,0,0,0,0,0,0,0,0,0],"id":9,"left_children":[1,3,5,-1,-1,7,9,11,13,15,-1,17,19,21,23,-1,-1,25,27,29,-1,31,-1,33,35,-1,-1,-1,-1,-1,-1,-1,-1,-1,-1,-1,-1],"loss_changes":[4.346261E3,2.3736914E2,2.927174E3,0E0,0E0,5.2885874E3,2.7936035E1,8.636511E1,3.024615E3,1.1187744E-1,0E0,2.1644487E2,3.4390625E1,3.223999E2,4.296408E3,0E0,0E0,2.21875E0,7.019914E1,1.5393188E1,0E0,9.566632E1,0E0,1.890365E2,1.720603E2,0E0,0E0,0E0,0E0,0E0,0E0,0E0,0E0,0E0,0E0,0E0,0E0],"parents":[2147483647,0,0,1,1,2,2,5,5,6,6,7,7,8,8,9,9,11,11,12,12,13,13,14,14,17,17,18,18,19,19,21,21,23,23,24,24],"right_children":[2,4,6,-1,-1,8,10,12,14,16,-1,18,20,22,24,-1,-1,26,28,30,-1,32,-1,34,36,-1,-1,-1,-1,-1,-1,-1,-1,-1,-1,-1,-1],"split_conditions":[-1.3866289E0,1.184812E0,8.569486E-1,1.0423373E0,1.09166525E-1,-5.237145E-1,3.1745292E-2,-7.476562E-1,-1.7854871E-1,-4.5640308E-1,-3.0460295E-1,-2.0932192E-2,1.5677543E-1,-5.618777E-2,3.3919993E-1,-1.3720627E-1,-2.3619206E-1,-1.214046E0,-6.9629735E-1,-1.214046E0,-1.5970957E-1,-1.5066183E-1,7.5161475E-1,-4.3438435E-1,-1.1930002E-2,-1.072526E-1,-2.3440233E-1,-1.1724199E-2,2.8268155E-1,-1.7128338E-1,-2.7560446E-1,4.7183162E-1,1.2276917E-1,1.5122958E-1,-2.2073367E-1,3.4851763E-1,6.1040324E-1],"split_indices":[0,7,0,0,0,0,5,24,0,21,0,8,17,5,0,0,0,0,0,0,0,5,0,5,6,0,0,0,0,0,0,0,0,0,0,0,0],"split_type":[0,0,0,0,0,0,0,0,0,0,0,0,0,0,0,0,0,0,0,0,0,0,0,0,0,0,0,0,0,0,0,0,0,0,0,0,0],"sum_hessian":[3.31E2,1E1,3.21E2,9E0,1E0,2.24E2,9.7E1,1.01E2,1.23E2,4.6E1,5.1E1,2.5E1,7.6E1,3.6E1,8.7E1,5E0,4.1E1,1.7E1,8E0,5.8E1,1.8E1,1E1,2.6E1,4.9E1,3.8E1,3E0,1.4E1,6E0,2E0,1.1E1,4.7E1,6E0,4E0,3E0,4.6E1,1.7E1,2.1E1],"tree_param":{"num_deleted":"0","num_feature":"31","num_nodes":"37","size_leaf_vector":"1"}},{"base_weights":[1.9855063E-2,1.8948517E1,-6.685201E-1,1.0142033E0,1.064373E-1,1.0810946E0,-5.13884E0,-4.171701E0,5.3308525E0,-1.8626772E-1,-2.7029985E-1,-2.438054E0,-4.6980805E0,1.3055273E1,2.0693283E0,-4.11155E0,8.1804353E-1,-3.298915E0,-5.0181885E0,1.4183995E1,6.908477E0,-3.6128767E0,9.8306265E0,-1.0323057E-1,-2.1916483E-1,-5.13443E-2,2.7325872E-1,-1.7180234E-1,-2.4191856E-2,-2.5945607E-1,-1.2504902E-1,7.430852E-1,2.862304E-1,1.1785828E-1,5.4352486E-1,-9.675871E-2,-2.580774E-1,2.926334E-1,5.873751E-1],"categories":[],"categories_nodes":[],"categories_segments":[],"categories_sizes":[],"default_left":[0,0,0,0,0,0,0,0,0,0,0,0,0,0,0,0,0,0,0,0,0,0,0,0,0,0,0,0,0,0,0,0,0,0,0,0,0,0,0],"id":10,"left_children":[1,3,5,-1,-1,7,9,11,13,-1,-1,15,17,19,21,23,25,27,29,31,33,35,37,-1,-1,-1,-1,-1,-1,-1,-1,-1,-1,-1,-1,-1,-1,-1,-1],"loss_changes":[4.4559043E3,2.2638379E2,2.5865972E3,0E0,0E0,5.3351387E3,1.4979736E1,8.618945E1,3.2985112E3,0E0,0E0,1.504882E2,1.9723999E1,1.7259277E2,4.181038E3,9.626465E-1,9.1348404E1,5.2861786E0,1.4559692E1,9.837891E1,1.1863556E2,1.3291309E2,2.3625586E2,0E0,0E0,0E0,0E0,0E0,0E0,0E0,0E0,0E0,0E0,0E0,0E0,0E0,0E0,0E0,0E0],"parents":[2147483647,0,0,1,1,2,2,5,5,6,6,7,7,8,8,11,11,12,12,13,13,14,14,15,15,16,16,17,17,18,18,19,19,20,20,21,21,22,22],"right_children":[2,4,6,-1,-1,8,10,12,14,-1,-1,16,18,20,22,24,26,28,30,32,34,36,38,-1,-1,-1,-1,-1,-1,-1,-1,-1,-1,-1,-1,-1,-1,-1,-1],"split_conditions":[-1.3866289E0,1.184812E0,8.569486E-1,1.0142033E0,1.064373E-1,-5.237145E-1,-1.0120041E0,-7.476562E-1,-1.7854871E-1,-1.8626772E-1,-2.7029985E-1,-2.0932192E-2,-1.214046E0,8.7650704E-1,3.3919993E-1,-1.214046E0,-6.9629735E-1,8.6752385E-1,1.4401105E-1,3.4032017E-1,1.1001276E-1,-1.1930002E-2,-1.1930002E-2,-1.0323057E-1,-2.1916483E-1,-5.13443E-2,2.7325872E-1,-1.7180234E-1,-2.4191856E-2,-2.5945607E-1,-1.2504902E-1,7.430852E-1,2.862304E-1,1.1785828E-1,5.4352486E-1,-9.675871E-2,-2.580774E-1,2.926334E-1,5.873751E-1],"split_indices":[0,7,0,0,0,0,8,24,0,0,0,8,0,7,0,0,0,24,1,19,9,6,6,0,0,0,0,0,0,0,0,0,0,0,0,0,0,0,0],"split_type":[0,0,0,0,0,0,0,0,0,0,0,0,0,0,0,0,0,0,0,0,0,0,0,0,0,0,0,0,0,0,0,0,0,0,0,0,0,0,0],"sum_hessian":[3.4E2,1.1E1,3.29E2,1E1,1E0,2.37E2,9.2E1,1.06E2,1.31E2,1.7E1,7.5E1,2.6E1,8E1,3.8E1,9.3E1,1.7E1,9E0,1.7E1,6.3E1,3.1E1,7E0,5.4E1,3.9E1,3E0,1.4E1,7E0,2E0,1.6E1,1E0,5.8E1,5E0,2.8E1,3E0,4E0,3E0,2.7E1,2.7E1,1.4E1,2.5E1],"tree_param":{"num_deleted":"0","num_feature":"31","num_nodes":"39","size_leaf_vector":"1"}},{"base_weights":[6.121538E-2,9.6382475E-1,-6.9748384E-1,8.3466893E-1,-5.0717754E0,-4.3244834E0,4.81843E0,-2.0023854E-1,-2.6945287E-1,-2.7688904E0,-4.6132174E0,1.2259055E1,1.420189E0,-1.2203611E0,-3.2706046E0,-4.767547E0,-1.2948619E-1,1.3231287E1,5.785492E0,-4.3142304E0,8.88263E0,-7.972781E-2,-3.1731226E-2,-6.20327E-2,-1.7634499E-1,-2.4698777E-1,-1.5771091E-1,6.900388E-1,2.754967E-1,1.1314392E-1,4.8640084E-1,-2.3723309E-1,-4.6542685E-2,4.6566135E-1,3.055369E-2],"categories":[],"categories_nodes":[],"categories_segments":[],"categories_sizes":[],"default_left":[0,0,0,0,0,0,0,0,0,0,0,0,0,0,0,0,0,0,0,0,0,0,0,0,0,0,0,0,0,0,0,0,0,0,0],"id":11,"left_children":[1,-1,3,5,7,9,11,-1,-1,13,15,17,19,21,23,25,-1,27,29,31,33,-1,-1,-1,-1,-1,-1,-1,-1,-1,-1,-1,-1,-1,-1],"loss_changes":[4.6057095E3,0E0,2.0416665E3,4.665777E3,5.1627197E0,3.1692749E1,3.2190745E3,0E0,0E0,9.993225E0,1.3260742E1,1.7520264E2,3.8468784E3,3.0313396E-1,2.3877869E0,5.2561035E0,0E0,7.346387E1,7.520262E1,6.985535E1,1.3321509E2,0E0,0E0,0E0,0E0,0E0,0E0,0E0,0E0,0E0,0E0,0E0,0E0,0E0,0E0],"parents":[2147483647,0,0,2,2,3,3,4,4,5,5,6,6,9,9,10,10,11,11,12,12,13,13,14,14,15,15,17,17,18,18,19,19,20,20],"right_children":[2,-1,4,6,8,10,12,-1,-1,14,16,18,20,22,24,26,-1,28,30,32,34,-1,-1,-1,-1,-1,-1,-1,-1,-1,-1,-1,-1,-1,-1],"split_conditions":[-1.3866289E0,9.6382475E-1,8.569486E-1,-5.237145E-1,-9.268427E-2,-1.214046E0,-1.7854871E-1,-2.0023854E-1,-2.6945287E-1,-4.6280038E-1,1.5247223E0,8.7650704E-1,3.3919993E-1,-1.7876075E-1,-3.937932E-1,1.6145279E-1,-1.2948619E-1,6.886008E-1,1.1001276E-1,1.2345396E0,1.184812E0,-7.972781E-2,-3.1731226E-2,-6.20327E-2,-1.7634499E-1,-2.4698777E-1,-1.5771091E-1,6.900388E-1,2.754967E-1,1.1314392E-1,4.8640084E-1,-2.3723309E-1,-4.6542685E-2,4.6566135E-1,3.055369E-2],"split_indices":[0,0,0,0,22,0,0,0,0,14,12,7,0,1,25,3,0,17,9,12,7,0,0,0,0,0,0,0,0,0,0,0,0,0,0],"split_type":[0,0,0,0,0,0,0,0,0,0,0,0,0,0,0,0,0,0,0,0,0,0,0,0,0,0,0,0,0,0,0,0,0,0,0],"sum_hessian":[3.14E2,1.1E1,3.03E2,2.25E2,7.8E1,9.8E1,1.27E2,2.1E1,5.7E1,1.7E1,8.1E1,3.9E1,8.8E1,5E0,1.2E1,7.4E1,7E0,3.3E1,6E0,5E1,3.8E1,2E0,3E0,2E0,1E1,6.5E1,9E0,3E1,3E0,4E0,2E0,4.4E1,6E0,3.6E1,2E0],"tree_param":{"num_deleted":"0","num_feature":"31","num_nodes":"35","size_leaf_vector":"1"}},{"base_weights":[2.3825426E-2,1.3072692E0,-2.4821962E-1,1.8353577E0,-5.3397577E-2,-4.282059E-1,2.828095E0,4.233841E-2,1.300633E-1,-1.0591881E0,2.7932146E-1,4.832279E-2,1.980902E-1,-8.9539266E-1,-1.6264187E-1,-2.1073847E-1,4.292964E-1,-5.181727E-1,-1.1585613E0,7.857664E-2,5.6472525E-2,4.3580192E-4,-3.4272376E-2,-4.559013E-2,-6.2271237E-2,-2.071303E-2,4.61311E-2],"categories":[],"categories_nodes":[],"categories_segments":[],"categories_sizes":[],"default_left":[0,0,0,0,0,0,0,0,0,0,0,0,0,0,0,0,0,0,0,0,0,0,0,0,0,0,0],"id":12,"left_children":[1,3,5,7,-1,9,11,-1,-1,13,15,-1,-1,17,-1,-1,19,21,23,-1,25,-1,-1,-1,-1,-1,-1],"loss_changes":[1.13799706E2,7.34567E1,1.501548E2,3.3384262E1,0E0,1.1413735E2,2.7829437E1,0E0,0E0,4.5594254E1,8.33635E1,0E0,0E0,1.2007263E1,0E0,0E0,5.0161903E1,4.765278E0,4.505539E-1,0E0,3.707748E1,0E0,0E0,0E0,0E0,0E0,0E0],"parents":[2147483647,0,0,1,1,2,2,3,3,5,5,6,6,9,9,10,10,13,13,16,16,17,17,18,18,20,20],"right_children":[2,4,6,8,-1,10,12,-1,-1,14,16,-1,-1,18,-1,-1,20,22,24,-1,26,-1,-1,-1,-1,-1,-1],"split_conditions":[-9.871693E-1,1.3582698E-1,7.920423E-1,-1.1603205E0,-5.3397577E-2,-1.1597993E-1,-3.9523426E-1,4.233841E-2,1.300633E-1,1.5254968E0,-7.774777E-1,4.832279E-2,1.980902E-1,-7.476562E-1,-1.6264187E-1,-2.1073847E-1,-1.2376674E-1,-1.4712048E-1,-4.831122E-1,7.857664E-2,-1.1625133E-1,4.3580192E-4,-3.4272376E-2,-4.559013E-2,-6.2271237E-2,-2.071303E-2,4.61311E-2],"split_indices":[26,5,5,8,0,20,4,0,0,26,8,0,0,24,0,0,22,5,4,0,4,0,0,0,0,0,0],"split_type":[0,0,0,0,0,0,0,0,0,0,0,0,0,0,0,0,0,0,0,0,0,0,0,0,0,0,0],"sum_hessian":[3.24E2,5.6E1,2.68E2,4.6E1,1E1,2.54E2,1.4E1,2.1E1,2.5E1,1.34E2,1.2E2,6E0,8E0,1.26E2,8E0,3E0,1.17E2,5.3E1,7.3E1,2.8E1,8.9E1,1.3E1,4E1,2.2E1,5.1E1,5.8E1,3.1E1],"tree_param":{"num_deleted":"0","num_feature":"31","num_nodes":"27","size_leaf_vector":"1"}},{"base_weights":[1.1532144E-2,8.954272E-1,-5.114699E-1,1.0016853E0,-4.625465E0,-3.9507062E0,4.8933187E0,-4.891305E0,-1.6032766E-1,-5.333341E-1,-4.1249537E0,1.181408E1,1.691912E0,-1.4577566E-1,-2.500918E-1,3.0085335E0,-2.5390232E-1,-2.887217E0,-4.437187E0,5.0097175E0,6.679309E-1,-3.0772626E0,8.6662E0,-1.5900752E-1,5.3936464E-1,-1.5470162E-1,-2.730217E-2,-2.2411902E-1,-2.8451538E-2,3.3607003E-1,-2.1709366E-1,-1.9183755E-1,5.3104866E-2,4.830496E-1,1.0410366E-1],"categories":[],"categories_nodes":[],"categories_segments":[],"categories_sizes":[],"default_left":[0,0,0,0,0,0,0,0,0,0,0,0,0,0,0,0,0,0,0,0,0,0,0,0,0,0,0,0,0,0,0,0,0,0,0],"id":13,"left_children":[1,-1,3,5,7,9,11,13,-1,15,17,19,21,-1,-1,23,-1,25,27,29,-1,31,33,-1,-1,-1,-1,-1,-1,-1,-1,-1,-1,-1,-1],"loss_changes":[2.9669749E3,0E0,1.921968E3,4.375006E3,1.5623657E1,5.7346924E1,2.7938455E3,2.6733398E-1,0E0,1.1185808E2,2.3902832E1,3.5346094E2,2.9536885E3,0E0,0E0,2.2686632E2,0E0,8.9627075E0,1.038562E1,1.7324611E2,0E0,1.7069623E2,2.1567944E2,0E0,0E0,0E0,0E0,0E0,0E0,0E0,0E0,0E0,0E0,0E0,0E0],"parents":[2147483647,0,0,2,2,3,3,4,4,5,5,6,6,7,7,9,9,10,10,11,11,12,12,15,15,17,17,18,18,19,19,21,21,22,22],"right_children":[2,-1,4,6,8,10,12,14,-1,16,18,20,22,-1,-1,24,-1,26,28,30,-1,32,34,-1,-1,-1,-1,-1,-1,-1,-1,-1,-1,-1,-1],"split_conditions":[-1.3866289E0,8.954272E-1,8.569486E-1,-5.237145E-1,1.6145279E-1,-3.840804E-1,-1.7854871E-1,-1.1603205E0,-1.6032766E-1,-1.0414631E0,-1.214046E0,-5.618777E-2,3.3919993E-1,-1.4577566E-1,-2.500918E-1,-1.214046E0,-2.5390232E-1,8.6752385E-1,1.6884179E0,-1.4712048E-1,6.679309E-1,4.0658128E-1,3.4032017E-1,-1.5900752E-1,5.3936464E-1,-1.5470162E-1,-2.730217E-2,-2.2411902E-1,-2.8451538E-2,3.3607003E-1,-2.1709366E-1,-1.9183755E-1,5.3104866E-2,4.830496E-1,1.0410366E-1],"split_indices":[0,0,0,0,3,20,0,8,0,0,0,5,0,0,0,0,0,24,12,5,0,17,19,0,0,0,0,0,0,0,0,0,0,0,0],"split_type":[0,0,0,0,0,0,0,0,0,0,0,0,0,0,0,0,0,0,0,0,0,0,0,0,0,0,0,0,0,0,0,0,0,0,0],"sum_hessian":[3.15E2,8E0,3.07E2,2.25E2,8.2E1,9.9E1,1.26E2,6.7E1,1.5E1,5E0,9.4E1,3.9E1,8.7E1,5E0,6.2E1,3E0,2E0,2.1E1,7.3E1,8E0,3.1E1,5.2E1,3.5E1,2E0,1E0,1.9E1,2E0,7.2E1,1E0,7E0,1E0,4.4E1,8E0,3E1,5E0],"tree_param":{"num_deleted":"0","num_feature":"31","num_nodes":"35","size_leaf_vector":"1"}},{"base_weights":[-1.9582961E-1,8.34869E-1,-6.9531333E-1,9.690527E-1,-4.541125E0,-3.230375E0,4.127891E0,-3.3770616E0,-4.8378606E0,-3.570186E0,-8.690567E-2,1.1195269E1,1.7016238E0,-2.3979833E0,-1.9965643E-1,-1.1452456E-1,-2.4582806E-1,-3.7097713E-1,-3.8146572E0,-2.8772686E0,6.25659E-1,4.4727592E0,1.2969636E1,-3.5014615E0,8.553171E0,-2.647349E-2,-1.3771892E-1,2.399007E-1,-2.723612E-1,-1.1460668E-1,-2.0882158E-1,-8.4226884E-2,-2.3506089E-1,3.8075134E-1,-2.8663253E-2,6.6018814E-1,1.896183E-1,2.7001533E-1,-1.9782194E-1,2.7016875E-1,5.3231764E-1],"categories":[],"categories_nodes":[],"categories_segments":[],"categories_sizes":[],"default_left":[0,0,0,0,0,0,0,0,0,0,0,0,0,0,0,0,0,0,0,0,0,0,0,0,0,0,0,0,0,0,0,0,0,0,0,0,0,0,0,0,0],"id":14,"left_children":[1,-1,3,5,7,9,11,13,15,17,19,21,23,25,-1,-1,-1,27,29,31,-1,33,35,37,39,-1,-1,-1,-1,-1,-1,-1,-1,-1,-1,-1,-1,-1,-1,-1,-1],"loss_changes":[2.6442292E3,0E0,1.9502552E3,2.8388462E3,1.5440796E1,9.796277E1,2.072926E3,3.694458E0,2.9726562E0,6.3500366E1,3.8759186E2,3.117644E2,3.3096736E3,5.866867E0,0E0,0E0,0E0,2.0980936E2,3.2839478E1,1.165995E1,0E0,1.3121312E2,1.4938965E0,2.3602148E2,2.0619775E2,0E0,0E0,0E0,0E0,0E0,0E0,0E0,0E0,0E0,0E0,0E0,0E0,0E0,0E0,0E0,0E0],"parents":[2147483647,0,0,2,2,3,3,4,4,5,5,6,6,7,7,8,8,9,9,10,10,11,11,12,12,13,13,17,17,18,18,19,19,21,21,22,22,23,23,24,24],"right_children":[2,-1,4,6,8,10,12,14,16,18,20,22,24,26,-1,-1,-1,28,30,32,-1,34,36,38,40,-1,-1,-1,-1,-1,-1,-1,-1,-1,-1,-1,-1,-1,-1,-1,-1],"split_conditions":[-1.3866289E0,8.34869E-1,8.569486E-1,-5.237145E-1,-5.618777E-2,1.2345396E0,-1.7854871E-1,1.3746972E0,-7.140473E-1,-3.840804E-1,-6.9629735E-1,-5.618777E-2,3.3919993E-1,-1.2655069E0,-1.9965643E-1,-1.1452456E-1,-2.4582806E-1,-8.688803E-1,-1.214046E0,-4.5218104E-1,6.25659E-1,-2.5172445E-1,3.4598227E0,-4.3438435E-1,-1.1930002E-2,-2.647349E-2,-1.3771892E-1,2.399007E-1,-2.723612E-1,-1.1460668E-1,-2.0882158E-1,-8.4226884E-2,-2.3506089E-1,3.8075134E-1,-2.8663253E-2,6.6018814E-1,1.896183E-1,2.7001533E-1,-1.9782194E-1,2.7016875E-1,5.3231764E-1],"split_indices":[0,0,0,0,5,12,0,0,19,20,0,5,0,8,0,0,0,0,0,4,0,5,1,5,6,0,0,0,0,0,0,0,0,0,0,0,0,0,0,0,0],"split_type":[0,0,0,0,0,0,0,0,0,0,0,0,0,0,0,0,0,0,0,0,0,0,0,0,0,0,0,0,0,0,0,0,0,0,0,0,0,0,0,0,0],"sum_hessian":[3.11E2,8E0,3.03E2,2.12E2,9.1E1,9.1E1,1.21E2,2.1E1,7E1,8.2E1,9E0,3E1,9.1E1,1E1,1.1E1,3E0,6.7E1,6E0,7.6E1,8E0,1E0,7E0,2.3E1,5.2E1,3.9E1,2E0,8E0,3E0,3E0,1.6E1,6E1,6E0,2E0,4E0,3E0,2.2E1,1E0,2E0,5E1,1.7E1,2.2E1],"tree_param":{"num_deleted":"0","num_feature":"31","num_nodes":"41","size_leaf_vector":"1"}},{"base_weights":[1.6363938E-1,1.5372607E1,-4.2372802E-1,8.3188546E-1,3.6412623E-2,1.1453661E0,-4.2297287E0,-3.844867E0,4.8011203E0,-3.500042E0,-2.4191855E-1,-3.404694E0,-2.8191575E-1,1.0436439E1,2.3951507E0,-1.7355057E0,-1.8149313E-1,-1.8247579E0,-3.7217932E0,4.738871E0,1.2041241E1,-2.6244497E0,8.860752E0,-1.1768275E-1,1.8427277E-2,-2.9843751E-2,-1.1084997E-1,-4.450035E-2,-1.8993932E-1,3.3255982E-1,1.17772736E-1,6.262576E-1,2.9427528E-1,-1.6607575E-1,1.1655933E-1,4.6500975E-1,1.7044831E-2],"categories":[],"categories_nodes":[],"categories_segments":[],"categories_sizes":[],"default_left":[0,0,0,0,0,0,0,0,0,0,0,0,0,0,0,0,0,0,0,0,0,0,0,0,0,0,0,0,0,0,0,0,0,0,0,0,0],"id":15,"left_children":[1,3,5,-1,-1,7,9,11,13,15,-1,17,-1,19,21,23,-1,25,27,29,31,33,35,-1,-1,-1,-1,-1,-1,-1,-1,-1,-1,-1,-1,-1,-1],"loss_changes":[2.8830208E3,2.102024E2,1.8621282E3,0E0,0E0,4.0501768E3,2.3480347E1,5.50094E1,1.710479E3,4.008606E0,0E0,3.2286377E1,0E0,2.9039014E2,2.9766355E3,7.370516E0,0E0,5.9011307E0,1.0572815E1,2.9912064E1,1.2668945E1,1.8737204E2,1.4658911E2,0E0,0E0,0E0,0E0,0E0,0E0,0E0,0E0,0E0,0E0,0E0,0E0,0E0,0E0],"parents":[2147483647,0,0,1,1,2,2,5,5,6,6,7,7,8,8,9,9,11,11,13,13,14,14,15,15,17,17,18,18,19,19,20,20,21,21,22,22],"right_children":[2,4,6,-1,-1,8,10,12,14,16,-1,18,-1,20,22,24,-1,26,28,30,32,34,36,-1,-1,-1,-1,-1,-1,-1,-1,-1,-1,-1,-1,-1,-1],"split_conditions":[-1.3866289E0,1.184812E0,8.569486E-1,8.3188546E-1,3.6412623E-2,-5.237145E-1,3.1745292E-2,6.570234E-1,-1.7854871E-1,-6.3329023E-1,-2.4191855E-1,-1.214046E0,-2.8191575E-1,-5.618777E-2,3.3919993E-1,1.5472801E0,-1.8149313E-1,-4.6280038E-1,-3.840804E-1,5.522715E-2,1.5677543E-1,4.0658128E-1,1.184812E0,-1.1768275E-1,1.8427277E-2,-2.9843751E-2,-1.1084997E-1,-4.450035E-2,-1.8993932E-1,3.3255982E-1,1.17772736E-1,6.262576E-1,2.9427528E-1,-1.6607575E-1,1.1655933E-1,4.6500975E-1,1.7044831E-2],"split_indices":[0,7,0,0,0,0,5,5,0,11,0,0,0,5,0,0,0,14,20,7,17,17,7,0,0,0,0,0,0,0,0,0,0,0,0,0,0],"split_type":[0,0,0,0,0,0,0,0,0,0,0,0,0,0,0,0,0,0,0,0,0,0,0,0,0,0,0,0,0,0,0,0,0,0,0,0,0],"sum_hessian":[3.21E2,1.1E1,3.1E2,1E1,1E0,2.2E2,9E1,9.3E1,1.27E2,4.4E1,4.6E1,7.7E1,1.6E1,3.7E1,9E1,4E0,4E1,1.4E1,6.3E1,9E0,2.8E1,5.1E1,3.9E1,3E0,1E0,4E0,1E1,2E0,6.1E1,4E0,5E0,2.5E1,3E0,4.5E1,6E0,3.7E1,2E0],"tree_param":{"num_deleted":"0","num_feature":"31","num_nodes":"37","size_leaf_vector":"1"}},{"base_weights":[2.3869334E-1,1.4572482E1,-3.4518516E-1,7.8840774E-1,3.5502244E-2,1.1388466E0,-4.025015E0,-2.9957924E0,4.4862986E0,-4.292044E0,-2.3642201E0,-1.2918686E0,-3.5221586E0,9.880215E0,2.0635264E0,-3.3604162E0,-2.3303795E-1,-1.3706726E0,-2.624572E0,-3.09973E0,2.0656483E0,-3.066645E0,-2.3157E-1,3.358224E0,1.1338688E1,-2.4226453E0,8.157033E0,-2.5875561E0,-1.9588232E-1,2.1076394E-2,-9.6205235E-2,-1.4803854E-1,-8.53185E-1,-5.1577505E-2,-1.6607511E-1,-1.5598056E-1,1.996405E-1,-7.9032175E-2,-1.66436E-1,2.530111E-1,-2.1389408E-1,5.881056E-1,2.8758812E-1,-1.8910328E-1,-3.220728E-2,1.729818E-1,4.824996E-1,-1.4757164E-1,-1.9541169E-2,-8.195553E-2,1.7966652E-2],"categories":[],"categories_nodes":[],"categories_segments":[],"categories_sizes":[],"default_left":[0,0,0,0,0,0,0,0,0,0,0,0,0,0,0,0,0,0,0,0,0,0,0,0,0,0,0,0,0,0,0,0,0,0,0,0,0,0,0,0,0,0,0,0,0,0,0,0,0,0,0],"id":16,"left_children":[1,3,5,-1,-1,7,9,11,13,15,17,19,21,23,25,27,-1,29,31,33,35,37,-1,39,41,43,45,47,-1,-1,-1,-1,49,-1,-1,-1,-1,-1,-1,-1,-1,-1,-1,-1,-1,-1,-1,-1,-1,-1,-1],"loss_changes":[2.566003E3,1.8770288E2,1.6155742E3,0E0,0E0,2.9337861E3,2.7548462E1,8.06543E1,1.508595E3,9.0703125E0,2.3971558E-2,1.5208116E2,2.217688E1,3.0435962E2,2.261356E3,1.9873047E-1,0E0,5.7703705E0,3.4292984E0,3.9123383E0,1.0239151E2,1.5768402E1,0E0,1.2562013E2,9.5043945E-1,1.1361478E2,2.1207031E2,9.237923E0,0E0,0E0,0E0,0E0,3.447833E0,0E0,0E0,0E0,0E0,0E0,0E0,0E0,0E0,0E0,0E0,0E0,0E0,0E0,0E0,0E0,0E0,0E0,0E0],"parents":[2147483647,0,0,1,1,2,2,5,5,6,6,7,7,8,8,9,9,10,10,11,11,12,12,13,13,14,14,15,15,17,17,18,18,19,19,20,20,21,21,23,23,24,24,25,25,26,26,27,27,32,32],"right_children":[2,4,6,-1,-1,8,10,12,14,16,18,20,22,24,26,28,-1,30,32,34,36,38,-1,40,42,44,46,48,-1,-1,-1,-1,50,-1,-1,-1,-1,-1,-1,-1,-1,-1,-1,-1,-1,-1,-1,-1,-1,-1,-1],"split_conditions":[-1.3866289E0,1.184812E0,8.569486E-1,7.8840774E-1,3.5502244E-2,-5.237145E-1,1.6145279E-1,-7.476562E-1,-1.7854871E-1,6.326571E-3,1.2021143E0,-2.0932192E-2,2.899267E-1,-5.618777E-2,3.3919993E-1,1.3746972E0,-2.3303795E-1,-2.4176435E-1,6.003987E-1,2.2701912E-2,-1.214046E0,-1.214046E0,-2.3157E-1,-1.4712048E-1,1.6145279E-1,-8.4511675E-2,-5.1376745E-2,6.787092E-1,-1.9588232E-1,2.1076394E-2,-9.6205235E-2,-1.4803854E-1,1.5472801E0,-5.1577505E-2,-1.6607511E-1,-1.5598056E-1,1.996405E-1,-7.9032175E-2,-1.66436E-1,2.530111E-1,-2.1389408E-1,5.881056E-1,2.8758812E-1,-1.8910328E-1,-3.220728E-2,1.729818E-1,4.824996E-1,-1.4757164E-1,-1.9541169E-2,-8.195553E-2,1.7966652E-2],"split_indices":[0,7,0,0,0,0,3,24,0,5,0,8,5,5,0,0,0,1,2,2,0,0,0,5,3,17,5,2,0,0,0,0,0,0,0,0,0,0,0,0,0,0,0,0,0,0,0,0,0,0,0],"split_type":[0,0,0,0,0,0,0,0,0,0,0,0,0,0,0,0,0,0,0,0,0,0,0,0,0,0,0,0,0,0,0,0,0,0,0,0,0,0,0,0,0,0,0,0,0,0,0,0,0,0,0],"sum_hessian":[3.05E2,1.1E1,2.94E2,1E1,1E0,2.1E2,8.4E1,9.4E1,1.16E2,7.1E1,1.3E1,2.3E1,7.1E1,3.5E1,8.1E1,2.3E1,4.8E1,4E0,9E0,1.5E1,8E0,5.3E1,1.8E1,7E0,2.8E1,4.7E1,3.4E1,1.2E1,1.1E1,1E0,3E0,7E0,2E0,2E0,1.3E1,2E0,6E0,9E0,4.4E1,6E0,1E0,2.5E1,3E0,2.6E1,2.1E1,9E0,2.5E1,1E1,2E0,1E0,1E0],"tree_param":{"num_deleted":"0","num_feature":"31","num_nodes":"51","size_leaf_vector":"1"}},{"base_weights":[4.5407203E-1,1.3879427E1,-9.544611E-2,7.5076604E-1,3.4614753E-2,1.227262E0,-3.905678E0,-2.780953E0,3.8399494E0,-1.6173004E0,-4.0103474E0,-3.4785697E0,-8.0476826E-1,9.498704E0,1.476461E0,-1.0984001E-1,1.7517472E-2,-3.4896939E0,-2.2931917E-1,-2.5567484E0,-3.9677439E0,6.120745E-1,-1.9042355E0,9.912351E0,-1.5549679E-1,-2.9868097E0,7.179798E0,-1.1590786E-1,-3.830621E0,-1.428344E-1,-7.811456E-2,-1.3720049E-1,-2.168649E-1,1.2495129E-2,-2.1384613E-1,7.389374E-2,5.050184E-1,-1.6915153E-1,1.4058542E-1,1.5599045E-1,4.2599007E-1,-7.7075325E-2,-1.9676678E-1],"categories":[],"categories_nodes":[],"categories_segments":[],"categories_sizes":[],"default_left":[0,0,0,0,0,0,0,0,0,0,0,0,0,0,0,0,0,0,0,0,0,0,0,0,0,0,0,0,0,0,0,0,0,0,0,0,0,0,0,0,0,0,0],"id":17,"left_children":[1,3,5,-1,-1,7,9,11,13,15,17,19,21,23,25,-1,-1,27,-1,29,31,-1,33,35,-1,37,39,-1,41,-1,-1,-1,-1,-1,-1,-1,-1,-1,-1,-1,-1,-1,-1],"loss_changes":[2.2514548E3,1.6935522E2,1.4865017E3,0E0,0E0,2.3040933E3,1.1717773E1,1.171405E2,1.7647709E3,6.47091E0,5.588745E0,1.8715088E1,3.675651E2,2.3423242E2,2.4397212E3,0E0,0E0,7.8952026E0,0E0,2.9939423E0,6.187805E0,0E0,1.1862403E2,4.533374E1,0E0,1.3357675E2,2.0191626E2,0E0,1.3644714E0,0E0,0E0,0E0,0E0,0E0,0E0,0E0,0E0,0E0,0E0,0E0,0E0,0E0,0E0],"parents":[2147483647,0,0,1,1,2,2,5,5,6,6,7,7,8,8,9,9,10,10,11,11,12,12,13,13,14,14,17,17,19,19,20,20,22,22,23,23,25,25,26,26,28,28],"right_children":[2,4,6,-1,-1,8,10,12,14,16,18,20,22,24,26,-1,-1,28,-1,30,32,-1,34,36,-1,38,40,-1,42,-1,-1,-1,-1,-1,-1,-1,-1,-1,-1,-1,-1,-1,-1],"split_conditions":[-1.3866289E0,1.184812E0,8.569486E-1,7.5076604E-1,3.4614753E-2,-5.237145E-1,-4.5640308E-1,6.475566E-2,-1.7854871E-1,1.5472801E0,1.3746972E0,-6.2886104E-2,7.50982E-2,1.184812E0,3.3919993E-1,-1.0984001E-1,1.7517472E-2,-9.268427E-2,-2.2931917E-1,-3.6408618E-2,-1.214046E0,6.120745E-1,-8.688803E-1,-1.3406129E0,-1.5549679E-1,6.886008E-1,-7.476562E-1,-1.1590786E-1,-1.1603205E0,-1.428344E-1,-7.811456E-2,-1.3720049E-1,-2.168649E-1,1.2495129E-2,-2.1384613E-1,7.389374E-2,5.050184E-1,-1.6915153E-1,1.4058542E-1,1.5599045E-1,4.2599007E-1,-7.7075325E-2,-1.9676678E-1],"split_indices":[0,7,0,0,0,0,21,1,0,0,0,22,1,7,0,0,0,22,0,1,0,0,0,15,0,17,24,0,8,0,0,0,0,0,0,0,0,0,0,0,0,0,0],"split_type":[0,0,0,0,0,0,0,0,0,0,0,0,0,0,0,0,0,0,0,0,0,0,0,0,0,0,0,0,0,0,0,0,0,0,0,0,0,0,0,0,0,0,0],"sum_hessian":[3.04E2,1.1E1,2.93E2,1E1,1E0,2.18E2,7.5E1,8.6E1,1.32E2,4E0,7.1E1,6.3E1,2.3E1,3.8E1,9.4E1,3E0,1E0,4.1E1,3E1,2.4E1,3.9E1,1E0,2.2E1,3.7E1,1E0,5.3E1,4.1E1,1.1E1,3E1,1.7E1,7E0,1.1E1,2.8E1,1.2E1,1E1,1E0,3.6E1,5E1,3E0,1.1E1,3E1,2E0,2.8E1],"tree_param":{"num_deleted":"0","num_feature":"31","num_nodes":"43","size_leaf_vector":"1"}},{"base_weights":[2.1202242E-1,1.3131898E1,-2.7465636E-1,3.374939E-2,7.101491E-1,1.0146229E0,-3.6179018E0,-2.8370492E0,3.9248698E0,-1.3345863E-1,-1.9540387E-1,-3.3221164E0,-1.4025306E0,9.478312E0,1.7435968E0,-2.9700599E0,-2.3093913E-1,2.0360847E0,-3.2349539E0,5.186744E0,1.0875679E1,-2.4150617E0,7.147945E0,-1.9132513E-1,-1.2760977E-1,-6.736209E-2,1.5251608E-1,-5.1264953E-2,-1.7235398E-1,3.3925977E-1,9.557816E-2,5.5256754E-1,1.577057E-1,3.211365E-2,-1.5969962E-1,1.7494658E-1,4.2454597E-1],"categories":[],"categories_nodes":[],"categories_segments":[],"categories_sizes":[],"default_left":[0,0,0,0,0,0,0,0,0,0,0,0,0,0,0,0,0,0,0,0,0,0,0,0,0,0,0,0,0,0,0,0,0,0,0,0,0],"id":18,"left_children":[1,3,5,-1,-1,7,9,11,13,-1,-1,15,17,19,21,23,-1,25,27,29,31,33,35,-1,-1,-1,-1,-1,-1,-1,-1,-1,-1,-1,-1,-1,-1],"loss_changes":[2.0785906E3,1.5052173E2,1.3786812E3,0E0,0E0,2.6004875E3,1.4070068E1,6.492438E1,1.5824653E3,0E0,0E0,2.0062866E1,1.7671362E2,1.6547583E2,2.1748472E3,1.2064575E1,0E0,3.842446E1,4.9027557E0,4.4617065E1,1.767334E0,1.3303125E2,1.7611328E2,0E0,0E0,0E0,0E0,0E0,0E0,0E0,0E0,0E0,0E0,0E0,0E0,0E0,0E0],"parents":[2147483647,0,0,1,1,2,2,5,5,6,6,7,7,8,8,11,11,12,12,13,13,14,14,15,15,17,17,18,18,19,19,20,20,21,21,22,22],"right_children":[2,4,6,-1,-1,8,10,12,14,-1,-1,16,18,20,22,24,-1,26,28,30,32,34,36,-1,-1,-1,-1,-1,-1,-1,-1,-1,-1,-1,-1,-1,-1],"split_conditions":[-1.3866289E0,-3.9072663E-1,8.569486E-1,3.374939E-2,7.101491E-1,-5.237145E-1,-5.618777E-2,6.475566E-2,-1.7854871E-1,-1.3345863E-1,-1.9540387E-1,6.3352156E-1,-1.1625133E-1,-2.3005959E-2,3.3919993E-1,-1.8071386E-1,-2.3093913E-1,-1.214046E0,-1.214046E0,1.5914682E-1,3.4598227E0,-1.4712048E-1,-7.476562E-1,-1.9132513E-1,-1.2760977E-1,-6.736209E-2,1.5251608E-1,-5.1264953E-2,-1.7235398E-1,3.3925977E-1,9.557816E-2,5.5256754E-1,1.577057E-1,3.211365E-2,-1.5969962E-1,1.7494658E-1,4.2454597E-1],"split_indices":[0,9,0,0,0,0,5,1,0,0,0,5,4,5,0,9,0,0,0,15,1,5,24,0,0,0,0,0,0,0,0,0,0,0,0,0,0],"split_type":[0,0,0,0,0,0,0,0,0,0,0,0,0,0,0,0,0,0,0,0,0,0,0,0,0,0,0,0,0,0,0,0,0,0,0,0,0],"sum_hessian":[3.29E2,1.1E1,3.18E2,1E0,1E1,2.3E2,8.8E1,9.9E1,1.31E2,2.3E1,6.5E1,7.3E1,2.6E1,3.6E1,9.5E1,6E1,1.3E1,9E0,1.7E1,1E1,2.6E1,5.4E1,4.1E1,1.7E1,4.3E1,2E0,7E0,2E0,1.5E1,6E0,4E0,2.5E1,1E0,1.1E1,4.3E1,1.2E1,2.9E1],"tree_param":{"num_deleted":"0","num_feature":"31","num_nodes":"37","size_leaf_vector":"1"}},{"base_weights":[1.0614874E-1,-1.4369486E-1,2.6213098E-1,7.055402E-1,-4.1797507E-1,3.871495E-1,1.8143476E0,-8.8404447E-1,8.0061567E-1,1.4556042E0,2.0455194E-1,2.6266425E0,5.6476433E-2,-1.0217333E-1,-1.3074801E0,4.565239E-1,8.528506E-2,9.2563376E-2,4.1762393E-2,5.2598726E-2,1.1668078E0,1.06942214E-1,1.8996124E-1,1.4295152E-1,-1.7811632E-2,-6.6234004E-1,-8.191517E-2,1.3021439E-2,3.0300168E-2,-1.355271E-2,1.4660959E-2,4.3654226E-2,1.12324394E-1,9.082922E-3,4.4180555E-3,-4.0071018E-2,-1.939265E-2],"categories":[],"categories_nodes":[],"categories_segments":[],"categories_sizes":[],"default_left":[0,0,0,0,0,0,0,0,0,0,0,0,0,0,0,0,0,0,0,0,0,0,0,0,0,0,0,0,0,0,0,0,0,0,0,0,0],"id":19,"left_children":[1,-1,3,5,7,9,11,13,15,17,19,21,-1,23,25,27,-1,-1,-1,29,31,-1,-1,33,-1,35,-1,-1,-1,-1,-1,-1,-1,-1,-1,-1,-1],"loss_changes":[1.4950027E2,0E0,9.227231E1,6.4608864E1,6.942947E1,2.799135E1,1.9840393E1,2.9000755E1,9.810011E0,3.6082306E0,1.821586E1,2.169754E0,0E0,2.043764E0,1.1080246E1,6.042962E-1,0E0,0E0,0E0,8.568128E0,3.4297867E0,0E0,0E0,1.9869924E-2,0E0,4.9085712E-1,0E0,0E0,0E0,0E0,0E0,0E0,0E0,0E0,0E0,0E0,0E0],"parents":[2147483647,0,0,2,2,3,3,4,4,5,5,6,6,7,7,8,8,9,9,10,10,11,11,13,13,14,14,15,15,19,19,20,20,23,23,25,25],"right_children":[2,-1,4,6,8,10,12,14,16,18,20,22,-1,24,26,28,-1,-1,-1,30,32,-1,-1,34,-1,36,-1,-1,-1,-1,-1,-1,-1,-1,-1,-1,-1],"split_conditions":[-1.2318082E0,-1.4369486E-1,4.3508655E-1,6.003987E-1,1.7733368E-1,-9.8290014E-1,-2.5828272E-1,-2.6786238E-1,9.5380424E-4,7.603992E-2,1.2345396E0,-1.4186943E-1,5.6476433E-2,4.143962E-2,9.638628E-2,-3.6408618E-2,8.528506E-2,9.2563376E-2,4.1762393E-2,-1.2663488E-1,-1.8673632E-1,1.06942214E-1,1.8996124E-1,-1.7876075E-1,-1.7811632E-2,4.8191044E-3,-8.191517E-2,1.3021439E-2,3.0300168E-2,-1.355271E-2,1.4660959E-2,4.3654226E-2,1.12324394E-1,9.082922E-3,4.4180555E-3,-4.0071018E-2,-1.939265E-2],"split_indices":[12,0,18,2,9,14,18,19,1,1,12,1,0,1,2,1,0,0,0,7,1,0,0,1,0,1,0,0,0,0,0,0,0,0,0,0,0],"split_type":[0,0,0,0,0,0,0,0,0,0,0,0,0,0,0,0,0,0,0,0,0,0,0,0,0,0,0,0,0,0,0,0,0,0,0,0,0],"sum_hessian":[3.19E2,1.5E1,3.04E2,1.84E2,1.2E2,1.44E2,4E1,8.7E1,3.3E1,2E1,1.24E2,1.7E1,2.3E1,3.1E1,5.6E1,2.5E1,8E0,1.1E1,9E0,1.08E2,1.6E1,1.4E1,3E0,1.6E1,1.5E1,2E1,3.6E1,1.2E1,1.3E1,4.6E1,6.2E1,1.4E1,2E0,8E0,8E0,1.2E1,8E0],"tree_param":{"num_deleted":"0","num_feature":"31","num_nodes":"37","size_leaf_vector":"1"}},{"base_weights":[2.7967718E-1,6.934616E-1,-2.3240532E-1,1.0243597E0,-3.344471E0,-2.8894153E0,3.841638E0,-2.6770682E0,-3.744777E0,-2.3108876E0,-3.9742553E0,9.276318E0,1.4043964E0,-3.918724E-2,-2.760482E0,-7.718124E-2,-3.8420813E0,3.030623E0,-2.7108328E0,-4.285261E0,-1.9123535E0,1.0106235E1,5.2025857E0,-2.5298889E0,6.4559264E0,-2.0070686E0,-1.60153E-1,-1.5922216E0,-3.9002314E0,-1.434358E-1,3.9598772E-1,-1.0801494E-1,-1.7085949E-1,-1.1611412E-1,-2.2628401E-1,-3.7209954E-2,-1.1551905E-1,2.7352485E-1,5.3693354E-1,1.1508866E-1,3.134682E-1,1.5561448E-1,-1.4060882E-1,1.2765056E-1,3.816288E-1,-1.2520862E-1,-5.9847165E-2,-4.825592E-4,-1.1893406E-1,-1.980661E-1,-8.113506E-2],"categories":[],"categories_nodes":[],"categories_segments":[],"categories_sizes":[],"default_left":[0,0,0,0,0,0,0,0,0,0,0,0,0,0,0,0,0,0,0,0,0,0,0,0,0,0,0,0,0,0,0,0,0,0,0,0,0,0,0,0,0,0,0,0,0,0,0,0,0,0,0],"id":20,"left_children":[1,-1,3,5,7,9,11,13,15,17,19,21,23,-1,25,-1,27,29,31,33,35,37,39,41,43,45,-1,47,49,-1,-1,-1,-1,-1,-1,-1,-1,-1,-1,-1,-1,-1,-1,-1,-1,-1,-1,-1,-1,-1,-1],"loss_changes":[2.2996846E3,0E0,1.2510781E3,2.5250723E3,1.4554077E1,5.106653E1,1.7486405E3,3.8378296E0,5.849304E0,1.470758E2,1.232547E1,8.6036865E1,1.8646295E3,0E0,5.5751953E0,0E0,5.9313965E-1,1.6693275E2,1.6339111E1,2.2323608E0,1.0703621E0,3.8003906E1,1.3420044E1,9.31662E1,1.6880078E2,3.446106E0,0E0,3.710925E0,5.2874756E-1,0E0,0E0,0E0,0E0,0E0,0E0,0E0,0E0,0E0,0E0,0E0,0E0,0E0,0E0,0E0,0E0,0E0,0E0,0E0,0E0,0E0,0E0],"parents":[2147483647,0,0,2,2,3,3,4,4,5,5,6,6,7,7,8,8,9,9,10,10,11,11,12,12,14,14,16,16,17,17,18,18,19,19,20,20,21,21,22,22,23,23,24,24,25,25,27,27,28,28],"right_children":[2,-1,4,6,8,10,12,14,16,18,20,22,24,-1,26,-1,28,30,32,34,36,38,40,42,44,46,-1,48,50,-1,-1,-1,-1,-1,-1,-1,-1,-1,-1,-1,-1,-1,-1,-1,-1,-1,-1,-1,-1,-1,-1],"split_conditions":[-1.3866289E0,6.934616E-1,8.569486E-1,-5.237145E-1,1.2021143E0,-8.688803E-1,-1.7854871E-1,-1.3448179E0,-4.5640308E-1,-3.840804E-1,7.024368E-1,2.6763338E-1,3.3919993E-1,-3.918724E-2,-5.4793917E-2,-7.718124E-2,-1.2655069E0,-1.214046E0,4.3508655E-1,-1.1502967E-1,-6.9629735E-1,-1.4186943E-1,-5.9544045E-2,-1.3448179E0,-7.476562E-1,1.0295315E0,-1.60153E-1,1.3746972E0,6.886008E-1,-1.434358E-1,3.9598772E-1,-1.0801494E-1,-1.7085949E-1,-1.1611412E-1,-2.2628401E-1,-3.7209954E-2,-1.1551905E-1,2.7352485E-1,5.3693354E-1,1.1508866E-1,3.134682E-1,1.5561448E-1,-1.4060882E-1,1.2765056E-1,3.816288E-1,-1.2520862E-1,-5.9847165E-2,-4.825592E-4,-1.1893406E-1,-1.980661E-1,-8.113506E-2],"split_indices":[0,0,0,0,0,0,0,24,21,20,9,17,0,0,18,0,8,0,18,22,0,1,4,24,24,0,0,0,17,0,0,0,0,0,0,0,0,0,0,0,0,0,0,0,0,0,0,0,0,0,0],"split_type":[0,0,0,0,0,0,0,0,0,0,0,0,0,0,0,0,0,0,0,0,0,0,0,0,0,0,0,0,0,0,0,0,0,0,0,0,0,0,0,0,0,0,0,0,0,0,0,0,0,0,0],"sum_hessian":[3.29E2,1.1E1,3.18E2,2.27E2,9.1E1,9.5E1,1.32E2,3.7E1,5.4E1,6.4E1,3.1E1,4E1,9.2E1,2E0,3.5E1,3E0,5.1E1,4E0,6E1,2.6E1,5E0,3.2E1,8E0,5.2E1,4E1,1.5E1,2E1,2E0,4.9E1,2E0,2E0,3.6E1,2.4E1,4E0,2.2E1,2E0,3E0,5E0,2.7E1,3E0,5E0,2E0,5E1,1E1,3E1,8E0,7E0,1E0,1E0,4.7E1,2E0],"tree_param":{"num_deleted":"0","num_feature":"31","num_nodes":"51","size_leaf_vector":"1"}},{"base_weights":[4.4280436E-2,6.5654314E-1,-4.6081042E-1,7.479922E-1,-3.2593017E0,-2.8220139E0,3.5803087E0,-2.6452827E0,-3.5948083E0,-3.077115E0,-1.3382454E0,8.654249E0,1.6017212E0,-1.773583E0,-2.9927554E0,-1.8468295E-1,-1.8082612E0,-2.6056063E0,-3.807543E0,-2.9384449E0,6.575434E0,9.330628E0,3.9427109E0,-2.1158433E0,6.883591E0,3.148327E-2,-1.01316296E-1,-3.052555E0,-3.8939096E-2,-3.7881088E-2,-1.1280733E-1,-7.808042E-2,-1.5955055E-1,-3.2673072E-2,-1.9468856E-1,-8.299282E-2,-2.4539666E-1,-1.07506946E-1,6.0066456E-1,2.14527E-1,4.9827105E-1,4.0927507E-2,3.397011E-1,-3.532062E-2,-1.6745174E-1,3.700278E-1,1.4895903E-1,-1.6028182E-1,-7.4287035E-2],"categories":[],"categories_nodes":[],"categories_segments":[],"categories_sizes":[],"default_left":[0,0,0,0,0,0,0,0,0,0,0,0,0,0,0,0,0,0,0,0,0,0,0,0,0,0,0,0,0,0,0,0,0,0,0,0,0,0,0,0,0,0,0,0,0,0,0,0,0],"id":21,"left_children":[1,-1,3,5,7,9,11,13,15,17,19,21,23,25,27,-1,29,31,33,35,37,39,41,43,45,-1,-1,47,-1,-1,-1,-1,-1,-1,-1,-1,-1,-1,-1,-1,-1,-1,-1,-1,-1,-1,-1,-1,-1],"loss_changes":[2.1344429E3,0E0,1.0544961E3,2.2143862E3,9.855469E0,3.2597656E1,1.2109249E3,5.8990784E0,3.5637817E0,1.832013E1,2.2193701E2,7.15625E1,1.7621412E3,9.172157E0,9.3258667E-1,0E0,6.435261E-1,2.7408386E1,5.614746E0,2.7107857E1,1.6817548E2,5.0026123E1,4.7886467E1,8.97534E1,5.2634766E1,0E0,0E0,9.9365234E-1,0E0,0E0,0E0,0E0,0E0,0E0,0E0,0E0,0E0,0E0,0E0,0E0,0E0,0E0,0E0,0E0,0E0,0E0,0E0,0E0,0E0],"parents":[2147483647,0,0,2,2,3,3,4,4,5,5,6,6,7,7,8,8,9,9,10,10,11,11,12,12,13,13,14,14,16,16,17,17,18,18,19,19,20,20,21,21,22,22,23,23,24,24,27,27],"right_children":[2,-1,4,6,8,10,12,14,16,18,20,22,24,26,28,-1,30,32,34,36,38,40,42,44,46,-1,-1,48,-1,-1,-1,-1,-1,-1,-1,-1,-1,-1,-1,-1,-1,-1,-1,-1,-1,-1,-1,-1,-1],"split_conditions":[-1.3866289E0,6.5654314E-1,8.569486E-1,-5.237145E-1,-4.9084136E-1,1.0765033E0,-1.7854871E-1,1.2021143E0,1.184812E0,-8.688803E-1,-6.9629735E-1,9.466615E-1,3.3919993E-1,-2.4176435E-1,1.8924459E0,-1.8468295E-1,1.2021143E0,-8.255848E-1,-8.453501E-1,-3.8855997E-1,-1.8673632E-1,-5.785232E-1,-3.511316E-1,-1.1930002E-2,1.0765033E0,3.148327E-2,-1.01316296E-1,6.003987E-1,-3.8939096E-2,-3.7881088E-2,-1.1280733E-1,-7.808042E-2,-1.5955055E-1,-3.2673072E-2,-1.9468856E-1,-8.299282E-2,-2.4539666E-1,-1.07506946E-1,6.0066456E-1,2.14527E-1,4.9827105E-1,4.0927507E-2,3.397011E-1,-3.532062E-2,-1.6745174E-1,3.700278E-1,1.4895903E-1,-1.6028182E-1,-7.4287035E-2],"split_indices":[0,0,0,0,18,12,0,0,7,0,0,26,0,1,0,0,0,18,13,4,1,6,0,6,12,0,0,2,0,0,0,0,0,0,0,0,0,0,0,0,0,0,0,0,0,0,0,0,0],"split_type":[0,0,0,0,0,0,0,0,0,0,0,0,0,0,0,0,0,0,0,0,0,0,0,0,0,0,0,0,0,0,0,0,0,0,0,0,0,0,0,0,0,0,0,0,0,0,0,0,0],"sum_hessian":[3.21E2,1.1E1,3.1E2,2.17E2,9.3E1,9.6E1,1.21E2,3.6E1,5.7E1,8.1E1,1.5E1,3.3E1,8.8E1,1.2E1,2.4E1,5.3E1,4E0,5.2E1,2.9E1,1.3E1,2E0,2.8E1,5E0,5.2E1,3.6E1,1E0,1.1E1,2.3E1,1E0,2E0,2E0,2E1,3.2E1,1E0,2.8E1,9E0,4E0,1E0,1E0,4E0,2.4E1,3E0,2E0,2.5E1,2.7E1,3.1E1,5E0,2E1,3E0],"tree_param":{"num_deleted":"0","num_feature":"31","num_nodes":"49","size_leaf_vector":"1"}},{"base_weights":[1.795097E-2,8.415672E-1,-4.3750006E-1,3.6414328E-1,2.1234853E0,-6.338939E-1,1.4402965E0,9.365245E-2,6.568739E-2,1.9312446E-1,8.202522E-2,-2.427939E-1,-9.722504E-1,8.527662E-2,2.6857886E-2,-1.2578268E-1,2.1437836E-1,2.6732773E-2,-8.0135715E-1,-6.004721E-1,-1.1778023E0,-1.8801136E-2,4.8051262E-1,-1.821016E-1,3.5627332E-1,-5.307703E-2,-2.9169083E-2,-2.1840574E-3,-3.62395E-2,-3.8261827E-2,-6.291469E-2,2.916613E-2,1.5751267E-3,-1.3995059E-2,-6.7410787E-4,3.0463679E-2,8.19275E-3],"categories":[],"categories_nodes":[],"categories_segments":[],"categories_sizes":[],"default_left":[0,0,0,0,0,0,0,0,0,0,0,0,0,0,0,0,0,0,0,0,0,0,0,0,0,0,0,0,0,0,0,0,0,0,0,0,0],"id":22,"left_children":[1,3,5,7,9,11,13,-1,15,-1,-1,17,19,-1,-1,-1,21,23,25,27,29,-1,31,33,35,-1,-1,-1,-1,-1,-1,-1,-1,-1,-1,-1,-1],"loss_changes":[1.21155815E2,6.9608864E1,7.762083E1,3.8156017E1,1.9700668E1,2.4774536E1,3.8747597E0,0E0,2.8174492E1,0E0,0E0,1.3420166E1,7.0111694E0,0E0,0E0,0E0,1.1022373E1,4.2628613E0,1.0254135E0,2.5986652E0,1.1624146E0,0E0,2.1974344E0,6.2288105E-1,1.0685327E0,0E0,0E0,0E0,0E0,0E0,0E0,0E0,0E0,0E0,0E0,0E0,0E0],"parents":[2147483647,0,0,1,1,2,2,3,3,4,4,5,5,6,6,8,8,11,11,12,12,16,16,17,17,18,18,19,19,20,20,22,22,23,23,24,24],"right_children":[2,4,6,8,10,12,14,-1,16,-1,-1,18,20,-1,-1,-1,22,24,26,28,30,-1,32,34,36,-1,-1,-1,-1,-1,-1,-1,-1,-1,-1,-1,-1],"split_conditions":[-1.5522474E-1,3.479839E-2,7.2907895E-1,-4.5640308E-1,4.0271852E-2,-8.4511675E-2,6.475566E-2,9.365245E-2,-9.874302E-1,1.9312446E-1,8.202522E-2,8.3652414E-2,-2.6786238E-1,8.527662E-2,2.6857886E-2,-1.2578268E-1,-4.831122E-1,-4.5473255E-2,-5.34504E-1,8.00707E-3,-6.21803E-1,-1.8801136E-2,2.899267E-1,-7.140653E-2,-1.3127985E-2,-5.307703E-2,-2.9169083E-2,-2.1840574E-3,-3.62395E-2,-3.8261827E-2,-6.291469E-2,2.916613E-2,1.5751267E-3,-1.3995059E-2,-6.7410787E-4,3.0463679E-2,8.19275E-3],"split_indices":[6,1,5,21,1,17,1,0,5,0,0,10,19,0,0,0,4,1,3,5,4,0,5,1,1,0,0,0,0,0,0,0,0,0,0,0,0],"split_type":[0,0,0,0,0,0,0,0,0,0,0,0,0,0,0,0,0,0,0,0,0,0,0,0,0,0,0,0,0,0,0,0,0,0,0,0,0],"sum_hessian":[3.21E2,1.14E2,2.07E2,8.4E1,3E1,1.88E2,1.9E1,1.3E1,7.1E1,5E0,2.5E1,8.8E1,1E2,1.4E1,5E0,3E0,6.8E1,6E1,2.8E1,3.7E1,6.3E1,2.1E1,4.7E1,3.7E1,2.3E1,1.1E1,1.7E1,7E0,3E1,1.2E1,5.1E1,3.8E1,9E0,2.3E1,1.4E1,9E0,1.4E1],"tree_param":{"num_deleted":"0","num_feature":"31","num_nodes":"37","size_leaf_vector":"1"}},{"base_weights":[1.2751323E-1,1.1561002E1,-2.9765514E-1,2.7763366E-3,6.3009536E-1,9.8676676E-1,-3.2137892E0,-2.369793E0,3.5030422E0,-1.2773786E-1,-3.5342793E0,-1.404913E-1,-2.947008E0,8.044217E0,1.3716801E0,-2.9277263E0,-1.9488858E-1,-2.3268392E0,4.56461E0,-2.5565324E0,-2.2607692E-1,-1.6571216E-1,8.411035E0,-1.9387468E0,6.0765705E0,-1.569603E0,-3.2267778E0,-4.392637E-2,-1.2410387E-1,-1.4509787E-1,4.065814E-1,-6.785984E-2,-1.4178169E-1,2.5465986E-1,4.7469488E-1,-1.1559035E-1,2.5247625E-1,-5.802396E-2,3.2616365E-1,-1.1913834E-1,-1.8201923E-2,-6.7396805E-2,-1.6736327E-1],"categories":[],"categories_nodes":[],"categories_segments":[],"categories_sizes":[],"default_left":[0,0,0,0,0,0,0,0,0,0,0,0,0,0,0,0,0,0,0,0,0,0,0,0,0,0,0,0,0,0,0,0,0,0,0,0,0,0,0,0,0,0,0],"id":23,"left_children":[1,3,5,-1,-1,7,9,11,13,-1,15,17,19,21,23,25,-1,27,29,31,-1,-1,33,35,37,39,41,-1,-1,-1,-1,-1,-1,-1,-1,-1,-1,-1,-1,-1,-1,-1,-1],"loss_changes":[1.6270679E3,1.4301355E2,1.2129828E3,0E0,0E0,1.908658E3,1.1880981E1,1.24404236E2,1.2375425E3,0E0,2.6989136E0,2.2664789E2,3.578131E1,1.9870215E2,1.3979734E3,6.307419E0,0E0,1.1919174E0,2.100313E2,1.7574615E1,0E0,0E0,9.53562E1,1.4984695E2,1.2718396E2,5.994833E0,4.683838E-1,0E0,0E0,0E0,0E0,0E0,0E0,0E0,0E0,0E0,0E0,0E0,0E0,0E0,0E0,0E0,0E0],"parents":[2147483647,0,0,1,1,2,2,5,5,6,6,7,7,8,8,10,10,11,11,12,12,13,13,14,14,15,15,17,17,18,18,19,19,22,22,23,23,24,24,25,25,26,26],"right_children":[2,4,6,-1,-1,8,10,12,14,-1,16,18,20,22,24,26,-1,28,30,32,-1,-1,34,36,38,40,42,-1,-1,-1,-1,-1,-1,-1,-1,-1,-1,-1,-1,-1,-1,-1,-1],"split_conditions":[-1.3866289E0,-3.9072663E-1,8.569486E-1,2.7763366E-3,6.3009536E-1,-5.237145E-1,6.326571E-3,-7.476562E-1,-1.7854871E-1,-1.2773786E-1,1.2021143E0,-2.0932192E-2,6.570234E-1,-1.3448179E0,3.3919993E-1,-8.255848E-1,-1.9488858E-1,2.2701912E-2,-1.214046E0,-1.214046E0,-2.2607692E-1,-1.6571216E-1,-2.3005959E-2,6.570234E-1,-4.3438435E-1,1.0295315E0,-4.0726605E-1,-4.392637E-2,-1.2410387E-1,-1.4509787E-1,4.065814E-1,-6.785984E-2,-1.4178169E-1,2.5465986E-1,4.7469488E-1,-1.1559035E-1,2.5247625E-1,-5.802396E-2,3.2616365E-1,-1.1913834E-1,-1.8201923E-2,-6.7396805E-2,-1.6736327E-1],"split_indices":[0,9,0,0,0,0,5,24,0,0,0,8,5,24,0,18,0,2,0,0,0,0,5,5,5,0,17,0,0,0,0,0,0,0,0,0,0,0,0,0,0,0,0],"split_type":[0,0,0,0,0,0,0,0,0,0,0,0,0,0,0,0,0,0,0,0,0,0,0,0,0,0,0,0,0,0,0,0,0,0,0,0,0,0,0,0,0,0,0],"sum_hessian":[3.33E2,1.1E1,3.22E2,1E0,1E1,2.24E2,9.8E1,9.6E1,1.28E2,3.5E1,6.3E1,2E1,7.6E1,4E1,8.8E1,2.7E1,3.6E1,1.4E1,6E0,6.3E1,1.3E1,1E0,3.9E1,5.2E1,3.6E1,6E0,2.1E1,2E0,1.2E1,2E0,4E0,1.3E1,5E1,1.1E1,2.8E1,5E1,2E0,2E0,3.4E1,3E0,3E0,2E0,1.9E1],"tree_param":{"num_deleted":"0","num_feature":"31","num_nodes":"43","size_leaf_vector":"1"}},{"base_weights":[-3.5156386E-3,1.113177E1,-4.184843E-1,6.066953E-1,2.7069093E-3,6.33115E-1,-2.9379175E0,-2.4839942E0,3.0877628E0,-3.0994012E0,-2.128856E0,-3.2858398E0,-1.989344E0,7.491905E0,1.3497317E0,-2.718223E0,-1.7395757E-1,-1.4014759E0,-2.4363716E0,-2.248214E-1,-2.7361355E0,-2.5317564E0,-5.428848E-1,8.767806E0,5.3490415E0,-1.9093355E0,5.3526306E0,-1.3475443E0,-2.8631139E0,-9.1203E-2,-8.9149475E-2,-1.2716196E-1,-3.1520654E-2,-6.112053E-2,-1.4687447E-1,-6.657429E-2,-1.4307599E-1,-6.689911E-2,1.386613E-1,4.7184736E-1,2.3695831E-1,3.2503415E-2,3.1917074E-1,-1.4003754E-2,-1.6479209E-1,3.0105397E-1,1.6921235E-2,-1.18251555E-1,-1.2377167E-2,-6.815361E-2,-1.4997494E-1,3.042202E-2,-3.710823E-2],"categories":[],"categories_nodes":[],"categories_segments":[],"categories_sizes":[],"default_left":[0,0,0,0,0,0,0,0,0,0,0,0,0,0,0,0,0,0,0,0,0,0,0,0,0,0,0,0,0,0,0,0,0,0,0,0,0,0,0,0,0,0,0,0,0,0,0,0,0,0,0,0,0],"id":24,"left_children":[1,3,5,-1,-1,7,9,11,13,15,17,19,21,23,25,27,-1,29,31,-1,33,35,37,39,41,43,45,47,49,-1,51,-1,-1,-1,-1,-1,-1,-1,-1,-1,-1,-1,-1,-1,-1,-1,-1,-1,-1,-1,-1,-1,-1],"loss_changes":[1.543383E3,1.325586E2,8.549778E2,0E0,0E0,1.7521906E3,5.8135376E0,3.3523254E1,9.696687E2,1.6889038E0,8.354187E-1,1.2319397E1,4.9623077E1,5.1527344E1,1.2234716E3,4.6815796E0,0E0,4.2739315E0,7.1269226E-1,0E0,4.9434204E0,1.4792816E1,5.380651E1,1.1887085E1,7.3618225E1,1.1654387E2,1.3873535E2,6.1299696E0,3.685608E0,0E0,1.818173E0,0E0,0E0,0E0,0E0,0E0,0E0,0E0,0E0,0E0,0E0,0E0,0E0,0E0,0E0,0E0,0E0,0E0,0E0,0E0,0E0,0E0,0E0],"parents":[2147483647,0,0,1,1,2,2,5,5,6,6,7,7,8,8,9,9,10,10,11,11,12,12,13,13,14,14,15,15,17,17,18,18,20,20,21,21,22,22,23,23,24,24,25,25,26,26,27,27,28,28,30,30],"right_children":[2,4,6,-1,-1,8,10,12,14,16,18,20,22,24,26,28,-1,30,32,-1,34,36,38,40,42,44,46,48,50,-1,52,-1,-1,-1,-1,-1,-1,-1,-1,-1,-1,-1,-1,-1,-1,-1,-1,-1,-1,-1,-1,-1,-1],"split_conditions":[-1.3866289E0,8.198247E-1,8.569486E-1,6.066953E-1,2.7069093E-3,-5.237145E-1,1.6145279E-1,3.318347E-2,-1.7854871E-1,1.3746972E0,1.3746972E0,-4.7053376E-1,4.8524383E-1,1.811641E-2,3.3919993E-1,-1.1603205E0,-1.7395757E-1,3.9814627E0,1.8924459E0,-2.248214E-1,-1.214046E0,-1.1502967E-1,-6.9629735E-1,1.6145279E-1,-3.3610985E-1,-1.1930002E-2,4.0658128E-1,1.0295315E0,-6.569265E-1,-9.1203E-2,1.2021143E0,-1.2716196E-1,-3.1520654E-2,-6.112053E-2,-1.4687447E-1,-6.657429E-2,-1.4307599E-1,-6.689911E-2,1.386613E-1,4.7184736E-1,2.3695831E-1,3.2503415E-2,3.1917074E-1,-1.4003754E-2,-1.6479209E-1,3.0105397E-1,1.6921235E-2,-1.18251555E-1,-1.2377167E-2,-6.815361E-2,-1.4997494E-1,3.042202E-2,-3.710823E-2],"split_indices":[0,14,0,0,0,0,3,2,0,0,0,3,8,17,0,8,0,3,0,0,0,22,0,3,20,6,17,0,3,0,0,0,0,0,0,0,0,0,0,0,0,0,0,0,0,0,0,0,0,0,0,0,0],"split_type":[0,0,0,0,0,0,0,0,0,0,0,0,0,0,0,0,0,0,0,0,0,0,0,0,0,0,0,0,0,0,0,0,0,0,0,0,0,0,0,0,0,0,0,0,0,0,0,0,0,0,0,0,0],"sum_hessian":[3.32E2,1.1E1,3.21E2,1E1,1E0,2.27E2,9.4E1,1E2,1.27E2,7.6E1,1.8E1,3.6E1,6.4E1,3.5E1,9.2E1,4.2E1,3.4E1,7E0,1.1E1,9E0,2.7E1,4.6E1,1.8E1,2E1,1.5E1,5.1E1,4.1E1,5E0,3.7E1,5E0,2E0,1E1,1E0,4E0,2.3E1,1.1E1,3.5E1,1.5E1,3E0,1.6E1,4E0,3E0,1.2E1,2.4E1,2.7E1,3.6E1,5E0,2E0,3E0,4E0,3.3E1,1E0,1E0],"tree_param":{"num_deleted":"0","num_feature":"31","num_nodes":"53","size_leaf_vector":"1"}},{"base_weights":[3.7441842E-2,1.0085799E1,-3.07011E-1,5.5419105E-1,2.6393891E-3,7.3434466E-1,-2.8679082E0,-2.1833637E0,2.973087E0,-2.4601388E0,-1.7366754E-1,-5.6224155E-1,-2.660293E0,7.616183E0,8.9949447E-1,-1.630565E0,-2.6591365E0,-2.3191311E0,4.0357947E0,-2.2711666E0,-2.1245685E-1,8.658718E0,5.0615654E0,-2.1796973E0,5.2515173E0,-8.6937714E-1,-1.04639195E-1,-7.4419565E-2,-1.3987693E-1,-4.9036503E-2,-1.2607148E-1,4.4224802E-2,5.7358974E-1,-6.305163E-2,-1.240012E-1,2.6555052E-1,4.7824326E-1,7.09594E-2,3.1882986E-1,7.824707E-2,-1.2552838E-1,1.03556626E-1,3.319864E-1,2.966156E-2,-6.0600854E-2],"categories":[],"categories_nodes":[],"categories_segments":[],"categories_sizes":[],"default_left":[0,0,0,0,0,0,0,0,0,0,0,0,0,0,0,0,0,0,0,0,0,0,0,0,0,0,0,0,0,0,0,0,0,0,0,0,0,0,0,0,0,0,0,0,0],"id":25,"left_children":[1,3,5,-1,-1,7,9,11,13,15,-1,17,19,21,23,25,27,29,31,33,-1,35,37,39,41,43,-1,-1,-1,-1,-1,-1,-1,-1,-1,-1,-1,-1,-1,-1,-1,-1,-1,-1,-1],"loss_changes":[1.1487488E3,1.0955994E2,8.581504E2,0E0,0E0,1.5023188E3,1.4415039E1,7.582034E1,1.2447747E3,5.4039917E0,0E0,2.0323737E2,3.7955627E1,6.270459E1,1.2309116E3,3.1062813E0,3.289734E0,2.400772E0,1.5388464E2,1.0374939E1,0E0,3.1105835E1,5.800821E1,7.083429E1,1.5402002E2,4.2270427E0,0E0,0E0,0E0,0E0,0E0,0E0,0E0,0E0,0E0,0E0,0E0,0E0,0E0,0E0,0E0,0E0,0E0,0E0,0E0],"parents":[2147483647,0,0,1,1,2,2,5,5,6,6,7,7,8,8,9,9,11,11,12,12,13,13,14,14,15,15,16,16,17,17,18,18,19,19,21,21,22,22,23,23,24,24,25,25],"right_children":[2,4,6,-1,-1,8,10,12,14,16,-1,18,20,22,24,26,28,30,32,34,-1,36,38,40,42,44,-1,-1,-1,-1,-1,-1,-1,-1,-1,-1,-1,-1,-1,-1,-1,-1,-1,-1,-1],"split_conditions":[-1.3866289E0,9.998935E-1,8.569486E-1,5.5419105E-1,2.6393891E-3,-5.237145E-1,1.6496058E-1,-7.476562E-1,-1.7854871E-1,-8.272778E-1,-1.7366754E-1,-2.0932192E-2,6.570234E-1,7.50982E-2,3.3919993E-1,1.2021143E0,-6.45718E-1,-1.214046E0,-6.9629735E-1,-5.380215E-1,-2.1245685E-1,-4.906036E-1,5.798427E-1,-4.3438435E-1,-2.3005959E-2,-2.4176435E-1,-1.04639195E-1,-7.4419565E-2,-1.3987693E-1,-4.9036503E-2,-1.2607148E-1,4.4224802E-2,5.7358974E-1,-6.305163E-2,-1.240012E-1,2.6555052E-1,4.7824326E-1,7.09594E-2,3.1882986E-1,7.824707E-2,-1.2552838E-1,1.03556626E-1,3.319864E-1,2.966156E-2,-6.0600854E-2],"split_indices":[0,14,0,0,0,0,5,24,0,24,0,8,5,1,0,0,10,0,0,26,0,6,6,5,5,1,0,0,0,0,0,0,0,0,0,0,0,0,0,0,0,0,0,0,0],"split_type":[0,0,0,0,0,0,0,0,0,0,0,0,0,0,0,0,0,0,0,0,0,0,0,0,0,0,0,0,0,0,0,0,0,0,0,0,0,0,0,0,0,0,0,0,0],"sum_hessian":[3.3E2,1E1,3.2E2,9E0,1E0,2.28E2,9.2E1,9.9E1,1.29E2,5.8E1,3.4E1,2.3E1,7.6E1,3.9E1,9E1,1.3E1,4.5E1,1.7E1,6E0,6.3E1,1.3E1,2.6E1,1.3E1,5.3E1,3.7E1,6E0,7E0,6E0,3.9E1,3E0,1.4E1,5E0,1E0,1.2E1,5.1E1,7E0,1.9E1,4E0,9E0,4E0,4.9E1,1.2E1,2.5E1,1E0,5E0],"tree_param":{"num_deleted":"0","num_feature":"31","num_nodes":"45","size_leaf_vector":"1"}},{"base_weights":[1.2678112E-1,9.9227915E0,-2.5779048E-1,2.573395E-3,5.407753E-1,7.1473527E-1,-2.753958E0,-2.1264958E0,2.9138126E0,-1.0579574E-1,-1.546437E-1,-7.0913E-1,-2.5328014E0,6.8490934E0,1.2450575E0,-1.7902485E0,4.873745E0,-2.7606144E0,-9.563779E-1,7.2410183E0,-1.8150464E-1,-1.5259802E0,5.004239E0,-5.5549115E-2,-1.2485101E-1,-7.466202E-2,3.74691E-1,-7.670953E-2,-1.4910154E-1,-1.5997408E-1,3.045863E-1,3.9711025E-1,1.6007505E-1,2.621806E-1,-9.508181E-2,1.0475111E-1,3.4052333E-1],"categories":[],"categories_nodes":[],"categories_segments":[],"categories_sizes":[],"default_left":[0,0,0,0,0,0,0,0,0,0,0,0,0,0,0,0,0,0,0,0,0,0,0,0,0,0,0,0,0,0,0,0,0,0,0,0,0],"id":26,"left_children":[1,3,5,-1,-1,7,9,11,13,-1,-1,15,17,19,21,23,25,27,29,31,-1,33,35,-1,-1,-1,-1,-1,-1,-1,-1,-1,-1,-1,-1,-1,-1],"loss_changes":[1.1967819E3,1.0519043E2,7.4481E2,0E0,0E0,1.3870233E3,1.2052673E1,5.4064667E1,8.123501E2,0E0,0E0,1.4754744E2,2.4294556E1,1.7824622E2,9.347346E2,6.8275757E0,7.791801E1,1.3075745E1,1.9339626E2,7.6541626E1,0E0,1.4220941E2,1.8541095E2,0E0,0E0,0E0,0E0,0E0,0E0,0E0,0E0,0E0,0E0,0E0,0E0,0E0,0E0],"parents":[2147483647,0,0,1,1,2,2,5,5,6,6,7,7,8,8,11,11,12,12,13,13,14,14,15,15,16,16,17,17,18,18,19,19,21,21,22,22],"right_children":[2,4,6,-1,-1,8,10,12,14,-1,-1,16,18,20,22,24,26,28,30,32,-1,34,36,-1,-1,-1,-1,-1,-1,-1,-1,-1,-1,-1,-1,-1,-1],"split_conditions":[-1.3866289E0,-6.569265E-1,8.569486E-1,2.573395E-3,5.407753E-1,-5.237145E-1,6.326571E-3,-5.618777E-2,-1.7854871E-1,-1.0579574E-1,-1.546437E-1,-1.4712048E-1,1.2345396E0,1.184812E0,3.3919993E-1,-5.380215E-1,-1.214046E0,-1.214046E0,-6.9629735E-1,9.466615E-1,-1.8150464E-1,-4.3438435E-1,-1.1930002E-2,-5.5549115E-2,-1.2485101E-1,-7.466202E-2,3.74691E-1,-7.670953E-2,-1.4910154E-1,-1.5997408E-1,3.045863E-1,3.9711025E-1,1.6007505E-1,2.621806E-1,-9.508181E-2,1.0475111E-1,3.4052333E-1],"split_indices":[0,3,0,0,0,0,5,5,0,0,0,5,12,7,0,26,0,0,0,26,0,5,6,0,0,0,0,0,0,0,0,0,0,0,0,0,0],"split_type":[0,0,0,0,0,0,0,0,0,0,0,0,0,0,0,0,0,0,0,0,0,0,0,0,0,0,0,0,0,0,0,0,0,0,0,0,0],"sum_hessian":[3.16E2,1.1E1,3.05E2,1E0,1E1,2.2E2,8.5E1,9.6E1,1.24E2,3.2E1,5.3E1,2.2E1,7.4E1,3.6E1,8.8E1,1.9E1,3E0,6.4E1,1E1,3.5E1,1E0,5.1E1,3.7E1,1.1E1,8E0,1E0,2E0,1.1E1,5.3E1,8E0,2E0,2.9E1,6E0,2E0,4.9E1,1.5E1,2.2E1],"tree_param":{"num_deleted":"0","num_feature":"31","num_nodes":"37","size_leaf_vector":"1"}},{"base_weights":[-5.3524133E-3,5.326811E-1,-4.063002E-1,5.646452E-1,-2.56966E0,-2.188382E0,2.581988E0,-2.138643E0,-3.0010266E0,-3.1342323E0,-1.6496489E0,7.2848682E0,7.33755E-1,9.653982E-2,-2.2281902E0,-5.4147463E-2,-3.0622091E0,-1.9904953E-1,-1.3254116E-1,-2.0816834E0,-4.7791544E-1,8.144735E0,3.257244E0,-2.1094406E0,4.7245755E0,-4.5001986E-3,1.17406845E-2,-7.998549E-2,-2.4953802E0,-3.124263E0,-5.760155E-2,-6.0397822E-2,-1.1484033E-1,-6.2505476E-2,8.899056E-2,1.8110791E-1,4.2636284E-1,2.3347282E-1,3.388338E-2,-1.1965259E-1,1.8020873E-1,2.6992625E-1,-4.6899337E-2,-6.804078E-2,-1.322035E-1,-1.5914398E-1,-6.408742E-2],"categories":[],"categories_nodes":[],"categories_segments":[],"categories_sizes":[],"default_left":[0,0,0,0,0,0,0,0,0,0,0,0,0,0,0,0,0,0,0,0,0,0,0,0,0,0,0,0,0,0,0,0,0,0,0,0,0,0,0,0,0,0,0,0,0,0,0],"id":27,"left_children":[1,-1,3,5,7,9,11,13,15,17,19,21,23,25,27,-1,29,-1,-1,31,33,35,37,39,41,-1,-1,-1,43,45,-1,-1,-1,-1,-1,-1,-1,-1,-1,-1,-1,-1,-1,-1,-1,-1,-1],"loss_changes":[1.414647E3,0E0,6.715118E2,1.23304E3,1.1988586E1,4.2728333E1,1.1072329E3,1.0823273E1,2.1993408E0,2.955017E0,3.0391342E1,9.8146484E1,1.0652078E3,9.851657E-2,4.572235E0,0E0,1.7348022E0,0E0,0E0,5.683716E0,3.3606216E1,1.9282593E1,2.5978943E1,9.774951E1,1.538988E2,0E0,0E0,0E0,2.1376343E0,5.644226E-1,0E0,0E0,0E0,0E0,0E0,0E0,0E0,0E0,0E0,0E0,0E0,0E0,0E0,0E0,0E0,0E0,0E0],"parents":[2147483647,0,0,2,2,3,3,4,4,5,5,6,6,7,7,8,8,9,9,10,10,11,11,12,12,13,13,14,14,16,16,19,19,20,20,21,21,22,22,23,23,24,24,28,28,29,29],"right_children":[2,-1,4,6,8,10,12,14,16,18,20,22,24,26,28,-1,30,-1,-1,32,34,36,38,40,42,-1,-1,-1,44,46,-1,-1,-1,-1,-1,-1,-1,-1,-1,-1,-1,-1,-1,-1,-1,-1,-1],"split_conditions":[-1.3866289E0,5.326811E-1,8.569486E-1,-5.237145E-1,1.3746972E0,3.318347E-2,-1.7854871E-1,-1.2655069E0,-7.140473E-1,-4.7053376E-1,5.5461742E-2,2.6763338E-1,3.3919993E-1,1.2021143E0,-4.9084136E-1,-5.4147463E-2,6.886008E-1,-1.9904953E-1,-1.3254116E-1,-1.214046E0,-6.9629735E-1,-1.8673632E-1,-3.511316E-1,1.184812E0,4.0658128E-1,-4.5001986E-3,1.17406845E-2,-7.998549E-2,-6.569265E-1,1.6884179E0,-5.760155E-2,-6.0397822E-2,-1.1484033E-1,-6.2505476E-2,8.899056E-2,1.8110791E-1,4.2636284E-1,2.3347282E-1,3.388338E-2,-1.1965259E-1,1.8020873E-1,2.6992625E-1,-4.6899337E-2,-6.804078E-2,-1.322035E-1,-1.5914398E-1,-6.408742E-2],"split_indices":[0,0,0,0,0,2,0,8,19,3,1,17,0,0,18,0,17,0,0,0,0,1,0,7,17,0,0,0,3,12,0,0,0,0,0,0,0,0,0,0,0,0,0,0,0,0,0],"split_type":[0,0,0,0,0,0,0,0,0,0,0,0,0,0,0,0,0,0,0,0,0,0,0,0,0,0,0,0,0,0,0,0,0,0,0,0,0,0,0,0,0,0,0,0,0,0,0],"sum_hessian":[3.29E2,1.1E1,3.18E2,2.2E2,9.8E1,9.3E1,1.27E2,5.2E1,4.6E1,3.2E1,6.1E1,3.5E1,9.2E1,2E0,5E1,2E0,4.4E1,9E0,2.3E1,4.4E1,1.7E1,2.8E1,7E0,5.4E1,3.8E1,1E0,1E0,1.7E1,3.3E1,4.2E1,2E0,1E1,3.4E1,1.3E1,4E0,3E0,2.5E1,4E0,3E0,5.2E1,2E0,3.4E1,4E0,5E0,2.8E1,4E1,2E0],"tree_param":{"num_deleted":"0","num_feature":"31","num_nodes":"47","size_leaf_vector":"1"}},{"base_weights":[8.202436E-3,5.082664E-1,-3.8755634E-1,5.2211654E-1,-2.371712E0,-1.8972654E0,2.4654994E0,-1.9984363E0,-2.726294E0,-7.7433807E-1,-2.2659402E0,6.186367E0,1.009056E0,9.412638E-2,-2.085768E0,-3.2854208E-1,-2.8255599E0,1.4192802E0,-1.8901161E0,-1.9578722E0,-1.6901848E-1,3.633402E0,7.6641245E0,-1.9855994E0,4.844031E0,-4.387665E-3,1.1447144E-2,-1.8337498E0,-1.442632E-1,-5.9440423E-2,3.4799766E-2,-5.2342605E-2,-2.883945E0,-1.3351135E-1,1.4845859E-1,-7.1720122E-3,-1.0567218E-1,-4.8197348E-2,-1.0724288E-1,2.2900541E-1,6.080532E-3,4.411749E-1,2.4110632E-1,4.697266E-2,-1.2077971E-1,4.1778773E-2,3.1228903E-1,-4.531002E-2,-9.422323E-2,-7.125416E-2,-1.4788663E-1],"categories":[],"categories_nodes":[],"categories_segments":[],"categories_sizes":[],"default_left":[0,0,0,0,0,0,0,0,0,0,0,0,0,0,0,0,0,0,0,0,0,0,0,0,0,0,0,0,0,0,0,0,0,0,0,0,0,0,0,0,0,0,0,0,0,0,0,0,0,0,0],"id":28,"left_children":[1,-1,3,5,7,9,11,13,15,17,19,21,23,25,27,29,31,33,35,37,-1,39,41,43,45,-1,-1,47,-1,-1,-1,-1,49,-1,-1,-1,-1,-1,-1,-1,-1,-1,-1,-1,-1,-1,-1,-1,-1,-1,-1],"loss_changes":[1.2862468E3,0E0,5.5715753E2,1.0014561E3,7.39032E0,3.757495E1,6.332271E2,9.516418E0,1.0258392E1,6.387238E1,1.7757385E1,9.6651E1,9.972792E2,9.365163E-2,4.5820312E0,3.4715304E0,1.6541748E0,6.4973E1,6.328209E0,8.711746E0,0E0,4.5987885E1,2.3350708E1,6.3899414E1,2.0829749E2,0E0,0E0,1.7391968E-1,0E0,0E0,0E0,0E0,4.1375732E-1,0E0,0E0,0E0,0E0,0E0,0E0,0E0,0E0,0E0,0E0,0E0,0E0,0E0,0E0,0E0,0E0,0E0,0E0],"parents":[2147483647,0,0,2,2,3,3,4,4,5,5,6,6,7,7,8,8,9,9,10,10,11,11,12,12,13,13,14,14,15,15,16,16,17,17,18,18,19,19,21,21,22,22,23,23,24,24,27,27,32,32],"right_children":[2,-1,4,6,8,10,12,14,16,18,20,22,24,26,28,30,32,34,36,38,-1,40,42,44,46,-1,-1,48,-1,-1,-1,-1,50,-1,-1,-1,-1,-1,-1,-1,-1,-1,-1,-1,-1,-1,-1,-1,-1,-1,-1],"split_conditions":[-1.3866289E0,5.082664E-1,8.569486E-1,-5.237145E-1,1.3746972E0,-7.476562E-1,-1.7854871E-1,-8.579854E-1,-4.5640308E-1,-4.4191012E-1,6.570234E-1,-2.3005959E-2,3.3919993E-1,1.2021143E0,6.367282E-1,1.5472801E0,-7.140473E-1,-1.214046E0,-1.214046E0,-5.380215E-1,-1.6901848E-1,7.603992E-2,-3.511316E-1,-2.5172445E-1,-2.3005959E-2,-4.387665E-3,1.1447144E-2,-2.4176435E-1,-1.442632E-1,-5.9440423E-2,3.4799766E-2,-5.2342605E-2,-4.3438435E-1,-1.3351135E-1,1.4845859E-1,-7.1720122E-3,-1.0567218E-1,-4.8197348E-2,-1.0724288E-1,2.2900541E-1,6.080532E-3,4.411749E-1,2.4110632E-1,4.697266E-2,-1.2077971E-1,4.1778773E-2,3.1228903E-1,-4.531002E-2,-9.422323E-2,-7.125416E-2,-1.4788663E-1],"split_indices":[0,0,0,0,0,24,0,17,21,13,5,5,0,0,5,0,19,0,0,26,0,1,0,5,5,0,0,1,0,0,0,0,5,0,0,0,0,0,0,0,0,0,0,0,0,0,0,0,0,0,0],"split_type":[0,0,0,0,0,0,0,0,0,0,0,0,0,0,0,0,0,0,0,0,0,0,0,0,0,0,0,0,0,0,0,0,0,0,0,0,0,0,0,0,0,0,0,0,0,0,0,0,0,0,0],"sum_hessian":[3.18E2,1.1E1,3.07E2,2.11E2,9.6E1,9.4E1,1.17E2,5E1,4.6E1,2.4E1,7E1,3.2E1,8.5E1,2E0,4.8E1,2E0,4.4E1,8E0,1.6E1,5.7E1,1.3E1,1.3E1,1.9E1,4.8E1,3.7E1,1E0,1E0,3.9E1,9E0,1E0,1E0,2E0,4.2E1,2E0,6E0,2E0,1.4E1,1E1,4.7E1,1E1,3E0,1.2E1,7E0,6E0,4.2E1,1E1,2.7E1,3E0,3.6E1,3E0,3.9E1],"tree_param":{"num_deleted":"0","num_feature":"31","num_nodes":"51","size_leaf_vector":"1"}},{"base_weights":[-1.5751844E-2,8.974147E0,-4.077856E-1,4.8684102E-1,-2.351494E-2,4.039974E-1,-2.3146102E0,-1.8868004E0,2.2700565E0,-2.0367203E0,-2.8067427E0,-2.2705498E0,-8.425159E-1,6.00409E0,5.700868E-1,-1.6733876E0,-2.3383343E0,-1.7723684E0,-1.5127364E-1,-1.6651827E-1,-1.9677532E0,1.2599007E0,-1.8515984E0,2.6057677E0,6.9367275E0,-2.3613808E0,4.238595E0,-1.3875874E0,-2.006343E0,-2.4342415E0,-1.0344467E0,-2.0928447E-1,-1.1292578E-1,-1.10654764E-1,-5.773723E-2,-5.1271945E-2,5.4569894E-1,-4.742071E-2,-1.3299707E-1,2.1609847E-1,3.7065253E-2,4.2305318E-1,2.4241602E-1,1.407219E-1,-1.3800588E-1,9.21472E-2,2.9125035E-1,-8.961325E-2,-5.286149E-2,-4.971638E-2,-1.1052574E-1,-1.24984615E-1,-5.0597765E-2,-1.6016388E-2,-7.942009E-2,2.2981644E-3,-1.7994499E-2],"categories":[],"categories_nodes":[],"categories_segments":[],"categories_sizes":[],"default_left":[0,0,0,0,0,0,0,0,0,0,0,0,0,0,0,0,0,0,0,0,0,0,0,0,0,0,0,0,0,0,0,0,0,0,0,0,0,0,0,0,0,0,0,0,0,0,0,0,0,0,0,0,0,0,0,0,0],"id":29,"left_children":[1,3,5,-1,-1,7,9,11,13,15,17,19,21,23,25,27,29,31,-1,-1,33,35,37,39,41,43,45,47,49,51,53,55,-1,-1,-1,-1,-1,-1,-1,-1,-1,-1,-1,-1,-1,-1,-1,-1,-1,-1,-1,-1,-1,-1,-1,-1,-1],"loss_changes":[1.1807904E3,1.0542151E2,4.9782E2,0E0,0E0,9.703797E2,7.4122314E0,3.896286E1,7.900451E2,3.210144E0,1.8777161E0,1.7193878E1,6.3856667E1,1.0553113E2,9.456167E2,3.562622E-1,1.6086273E0,5.6064396E0,0E0,0E0,9.412338E0,2.318201E2,1.2078926E1,2.8794044E1,5.448108E1,1.0889386E2,1.3748395E2,9.126167E-1,4.8815155E-1,2.631073E-1,1.0735502E0,1.318669E-1,0E0,0E0,0E0,0E0,0E0,0E0,0E0,0E0,0E0,0E0,0E0,0E0,0E0,0E0,0E0,0E0,0E0,0E0,0E0,0E0,0E0,0E0,0E0,0E0,0E0],"parents":[2147483647,0,0,1,1,2,2,5,5,6,6,7,7,8,8,9,9,10,10,11,11,12,12,13,13,14,14,15,15,16,16,17,17,20,20,21,21,22,22,23,23,24,24,25,25,26,26,27,27,28,28,29,29,30,30,31,31],"right_children":[2,4,6,-1,-1,8,10,12,14,16,18,20,22,24,26,28,30,32,-1,-1,34,36,38,40,42,44,46,48,50,52,54,56,-1,-1,-1,-1,-1,-1,-1,-1,-1,-1,-1,-1,-1,-1,-1,-1,-1,-1,-1,-1,-1,-1,-1,-1,-1],"split_conditions":[-1.3866289E0,9.998935E-1,8.569486E-1,4.8684102E-1,-2.351494E-2,-5.237145E-1,1.6496058E-1,6.475566E-2,-1.7854871E-1,1.3746972E0,1.0295315E0,-2.4823298E-1,9.212041E-2,-5.618777E-2,3.3919993E-1,-8.064123E-2,7.79696E-1,3.908301E-2,-1.5127364E-1,-1.6651827E-1,4.658376E-1,-6.9629735E-1,-8.688803E-1,-4.9597573E-1,-3.511316E-1,-4.3438435E-1,-1.1930002E-2,1.0295315E0,-1.1268615E0,8.318422E-1,1.719863E0,5.5461742E-2,-1.1292578E-1,-1.10654764E-1,-5.773723E-2,-5.1271945E-2,5.4569894E-1,-4.742071E-2,-1.3299707E-1,2.1609847E-1,3.7065253E-2,4.2305318E-1,2.4241602E-1,1.407219E-1,-1.3800588E-1,9.21472E-2,2.9125035E-1,-8.961325E-2,-5.286149E-2,-4.971638E-2,-1.1052574E-1,-1.24984615E-1,-5.0597765E-2,-1.6016388E-2,-7.942009E-2,2.2981644E-3,-1.7994499E-2],"split_indices":[0,14,0,0,0,0,5,1,0,0,0,2,1,5,0,6,2,16,0,0,16,0,0,11,0,5,6,0,8,8,0,1,0,0,0,0,0,0,0,0,0,0,0,0,0,0,0,0,0,0,0,0,0,0,0,0,0],"split_type":[0,0,0,0,0,0,0,0,0,0,0,0,0,0,0,0,0,0,0,0,0,0,0,0,0,0,0,0,0,0,0,0,0,0,0,0,0,0,0,0,0,0,0,0,0,0,0,0,0,0,0,0,0,0,0,0,0],"sum_hessian":[3.33E2,1.3E1,3.2E2,1.2E1,1E0,2.25E2,9.5E1,1.01E2,1.24E2,6.4E1,3.1E1,7.3E1,2.8E1,3.8E1,8.6E1,3.2E1,3.2E1,7E0,2.4E1,1.4E1,5.9E1,9E0,1.9E1,9E0,2.9E1,4.8E1,3.8E1,2E1,1.2E1,2.9E1,3E0,2E0,5E0,4.4E1,1.5E1,8E0,1E0,1E1,9E0,4E0,5E0,1.5E1,1.4E1,3E0,4.5E1,1.6E1,2.2E1,7E0,1.3E1,3E0,9E0,2.7E1,2E0,2E0,1E0,1E0,1E0],"tree_param":{"num_deleted":"0","num_feature":"31","num_nodes":"57","size_leaf_vector":"1"}},{"base_weights":[1.6000582E-2,7.9619017E0,-2.5465238E-1,4.4249E-1,-2.2927094E-2,5.185482E-1,-2.2621443E0,-2.0055304E0,2.5184383E0,-1.9921621E0,-2.668109E0,-2.734644E0,-1.6123232E0,6.0150104E0,9.708154E-1,-7.803917E-3,-2.021636E0,-1.3974743E-1,-1.3988174E0,-2.1619353E0,-3.3541265E0,6.132943E-1,-1.8305575E0,6.358437E0,-1.844658E-1,-1.4575794E0,4.0270524E0,-1.1160858E0,-2.068921E0,2.2407533E-3,-8.854647E-2,-1.18385784E-1,-6.9007874E-3,-1.3004285E-1,-2.7501258E-1,-1.399955E-1,3.0487683E-1,-7.1812786E-2,-1.3131043E-1,1.5689948E-1,3.4244412E-1,-1.10200845E-1,3.7401838E-3,8.226588E-2,2.5370482E-1,-3.1038094E-2,-7.743454E-2,-8.824288E-2,-1.16943896E-1],"categories":[],"categories_nodes":[],"categories_segments":[],"categories_sizes":[],"default_left":[0,0,0,0,0,0,0,0,0,0,0,0,0,0,0,0,0,0,0,0,0,0,0,0,0,0,0,0,0,0,0,0,0,0,0,0,0,0,0,0,0,0,0,0,0,0,0,0,0],"id":30,"left_children":[1,3,5,-1,-1,7,9,11,13,15,17,19,21,23,25,-1,27,-1,29,31,33,35,37,39,-1,41,43,45,47,-1,-1,-1,-1,-1,-1,-1,-1,-1,-1,-1,-1,-1,-1,-1,-1,-1,-1,-1,-1],"loss_changes":[7.181712E2,8.62995E1,5.0253168E2,0E0,0E0,1.1862548E3,4.5489807E0,2.5406921E1,7.030507E2,2.8232117E0,1.4032593E0,5.165985E0,3.51221E1,1.5676721E2,6.886707E2,0E0,1.315918E-1,0E0,2.7653284E0,8.41935E0,9.943787E0,1.4810443E2,1.6306595E1,4.0106934E1,0E0,5.9643944E1,9.389661E1,1.100297E-1,2.2267151E-1,0E0,0E0,0E0,0E0,0E0,0E0,0E0,0E0,0E0,0E0,0E0,0E0,0E0,0E0,0E0,0E0,0E0,0E0,0E0,0E0],"parents":[2147483647,0,0,1,1,2,2,5,5,6,6,7,7,8,8,9,9,10,10,11,11,12,12,13,13,14,14,16,16,18,18,19,19,20,20,21,21,22,22,23,23,25,25,26,26,27,27,28,28],"right_children":[2,4,6,-1,-1,8,10,12,14,16,18,20,22,24,26,-1,28,-1,30,32,34,36,38,40,-1,42,44,46,48,-1,-1,-1,-1,-1,-1,-1,-1,-1,-1,-1,-1,-1,-1,-1,-1,-1,-1,-1,-1],"split_conditions":[-1.3866289E0,1.184812E0,8.569486E-1,4.4249E-1,-2.2927094E-2,-5.237145E-1,1.6496058E-1,-4.1570756E-1,-1.7854871E-1,-7.076801E-1,3.3026624E-1,-8.688803E-1,-4.2644423E-1,1.184812E0,3.3919993E-1,-7.803917E-3,-6.3329023E-1,-1.3974743E-1,1.0295315E0,8.7650704E-1,8.7650704E-1,-6.9629735E-1,6.3352156E-1,-4.906036E-1,-1.844658E-1,1.6661705E-1,-2.3005959E-2,1.719863E0,1.3746972E0,2.2407533E-3,-8.854647E-2,-1.18385784E-1,-6.9007874E-3,-1.3004285E-1,-2.7501258E-1,-1.399955E-1,3.0487683E-1,-7.1812786E-2,-1.3131043E-1,1.5689948E-1,3.4244412E-1,-1.10200845E-1,3.7401838E-3,8.226588E-2,2.5370482E-1,-3.1038094E-2,-7.743454E-2,-8.824288E-2,-1.16943896E-1],"split_indices":[0,7,0,0,0,0,5,16,0,10,4,0,23,7,0,0,11,0,0,7,7,0,5,6,0,0,5,0,0,0,0,0,0,0,0,0,0,0,0,0,0,0,0,0,0,0,0,0,0],"split_type":[0,0,0,0,0,0,0,0,0,0,0,0,0,0,0,0,0,0,0,0,0,0,0,0,0,0,0,0,0,0,0,0,0,0,0,0,0,0,0,0,0,0,0,0,0,0,0,0,0],"sum_hessian":[3.32E2,1E1,3.22E2,9E0,1E0,2.33E2,8.9E1,1.03E2,1.3E2,5.7E1,3.2E1,3.4E1,6.9E1,3.9E1,9.1E1,1E0,5.6E1,2.8E1,4E0,2E1,1.4E1,6E0,6.3E1,3.8E1,1E0,5.1E1,4E1,4E0,5.2E1,1E0,3E0,1.8E1,2E0,1.2E1,2E0,4E0,2E0,4.4E1,1.9E1,6E0,3.2E1,3.4E1,1.7E1,1.3E1,2.7E1,3E0,1E0,2.8E1,2.4E1],"tree_param":{"num_deleted":"0","num_feature":"31","num_nodes":"49","size_leaf_vector":"1"}},{"base_weights":[-3.12628E-2,7.886313E0,-3.327855E-1,4.3422684E-1,-2.2353744E-2,4.009187E-1,-2.1432323E0,-4.561666E-1,4.3763423E0,-1.6842172E0,-2.5371141E0,-1.6163535E0,7.9932564E-1,-1.3848038E0,4.7160025E0,1.8584442E-1,-1.7755188E0,-4.5013048E-2,-2.5898573E0,-2.0547583E0,-4.0364668E-1,5.4155684E0,-1.7179471E0,-2.2291584E-1,1.1905556E-1,5.038178E0,-7.2210187E-1,-7.5035094E-4,1.4688683E-2,-5.9093475E-1,-1.8495891E0,-1.3307475E-1,-5.9509944E-2,-1.242123E-1,-7.424581E-2,1.0661799E-1,-7.918342E-2,3.1484792E-1,1.2317331E-1,-1.1296463E-2,-1.2105037E-1,1.329609E-1,2.7603564E-1,2.0566063E-1,-2.598183E-1,2.1846772E-3,-4.0852103E-2,-1.1045831E-1,-6.679451E-2],"categories":[],"categories_nodes":[],"categories_segments":[],"categories_sizes":[],"default_left":[0,0,0,0,0,0,0,0,0,0,0,0,0,0,0,0,0,0,0,0,0,0,0,0,0,0,0,0,0,0,0,0,0,0,0,0,0,0,0,0,0,0,0,0,0,0,0,0,0],"id":31,"left_children":[1,3,5,-1,-1,7,9,11,13,15,17,19,21,23,25,27,29,-1,31,33,35,37,39,-1,-1,41,43,-1,-1,45,47,-1,-1,-1,-1,-1,-1,-1,-1,-1,-1,-1,-1,-1,-1,-1,-1,-1,-1],"loss_changes":[7.808937E2,8.370557E1,4.1928397E2,0E0,0E0,7.6863367E2,1.2179535E1,2.7222067E2,8.480408E1,8.013252E0,1.7260742E0,5.0741287E1,1.0551344E3,4.5339516E1,7.0214966E1,6.9441885E-2,2.679947E0,0E0,1.3443604E0,1.3687653E1,8.41756E1,6.775012E1,6.1342773E1,0E0,0E0,2.6644714E1,8.627717E1,0E0,0E0,6.0967565E-1,4.437378E0,0E0,0E0,0E0,0E0,0E0,0E0,0E0,0E0,0E0,0E0,0E0,0E0,0E0,0E0,0E0,0E0,0E0,0E0],"parents":[2147483647,0,0,1,1,2,2,5,5,6,6,7,7,8,8,9,9,10,10,11,11,12,12,13,13,14,14,15,15,16,16,18,18,19,19,20,20,21,21,22,22,25,25,26,26,29,29,30,30],"right_children":[2,4,6,-1,-1,8,10,12,14,16,18,20,22,24,26,28,30,-1,32,34,36,38,40,-1,-1,42,44,-1,-1,46,48,-1,-1,-1,-1,-1,-1,-1,-1,-1,-1,-1,-1,-1,-1,-1,-1,-1,-1],"split_conditions":[-1.3866289E0,8.7650704E-1,8.569486E-1,4.3422684E-1,-2.2353744E-2,3.3919993E-1,1.3746972E0,-5.237145E-1,-8.453501E-1,-1.2655069E0,-7.140473E-1,6.475566E-2,-1.7854871E-1,5.117828E-1,1.184812E0,1.2021143E0,-3.770091E-1,-4.5013048E-2,6.886008E-1,1.7239572E-1,9.212041E-2,7.50982E-2,-7.476562E-1,-2.2291584E-1,1.1905556E-1,-4.906036E-1,6.843657E-1,-7.5035094E-4,1.4688683E-2,1.0295315E0,-2.65483E-1,-1.3307475E-1,-5.9509944E-2,-1.242123E-1,-7.424581E-2,1.0661799E-1,-7.918342E-2,3.1484792E-1,1.2317331E-1,-1.1296463E-2,-1.2105037E-1,1.329609E-1,2.7603564E-1,2.0566063E-1,-2.598183E-1,2.1846772E-3,-4.0852103E-2,-1.1045831E-1,-6.679451E-2],"split_indices":[0,7,0,0,0,0,0,0,13,8,19,1,0,0,7,0,20,0,17,16,1,1,24,0,0,6,0,0,0,0,3,0,0,0,0,0,0,0,0,0,0,0,0,0,0,0,0,0,0],"split_type":[0,0,0,0,0,0,0,0,0,0,0,0,0,0,0,0,0,0,0,0,0,0,0,0,0,0,0,0,0,0,0,0,0,0,0,0,0,0,0,0,0,0,0,0,0,0,0,0,0],"sum_hessian":[3.25E2,1.1E1,3.14E2,1E1,1E0,2.24E2,9E1,1.85E2,3.9E1,4.4E1,4.6E1,9.6E1,8.9E1,2E0,3.7E1,2E0,4.2E1,2E0,4.4E1,7E1,2.6E1,3.1E1,5.8E1,1E0,1E0,3.5E1,2E0,1E0,1E0,3E0,3.9E1,4.1E1,3E0,3.8E1,3.2E1,8E0,1.8E1,2.3E1,8E0,1.9E1,3.9E1,7E0,2.8E1,1E0,1E0,1E0,2E0,2.1E1,1.8E1],"tree_param":{"num_deleted":"0","num_feature":"31","num_nodes":"49","size_leaf_vector":"1"}},{"base_weights":[1.3993298E-1,6.6053706E-1,-2.1670419E-1,9.68336E-3,1.330967E0,7.618681E-2,-1.0083948E0,2.5543898E-1,-2.9980543E-1,2.0989258E0,7.098676E-1,-7.356046E-2,2.1522866E-1,-1.697096E0,-3.328724E-1,2.1047726E-2,6.0997675E-3,-5.3881924E-3,-4.9746552E-1,1.4802495E-1,8.980387E-2,9.987465E-4,5.1375568E-2,6.7595065E-2,6.093173E-2,-9.647065E-2,-5.219481E-2,-1.9107504E-2,-1.1766148E-2,-1.8929608E-2,-3.648596E-2,4.448523E-2,-4.372347E-2,-1.942205E-2,2.6749403E-3],"categories":[],"categories_nodes":[],"categories_segments":[],"categories_sizes":[],"default_left":[0,0,0,0,0,0,0,0,0,0,0,0,0,0,0,0,0,0,0,0,0,0,0,0,0,0,0,0,0,0,0,0,0,0,0],"id":32,"left_children":[1,3,5,7,9,11,13,15,17,19,21,-1,23,25,27,-1,-1,-1,29,-1,-1,-1,-1,31,-1,-1,-1,-1,-1,-1,-1,-1,33,-1,-1],"loss_changes":[6.1227512E1,5.845825E1,4.5525124E1,5.324626E0,2.9990646E1,3.1298649E1,2.4092442E1,8.100383E-1,1.1231186E0,2.2495651E0,8.306795E0,0E0,1.9619774E1,1.9313812E0,4.4667482E-2,0E0,0E0,0E0,1.3786554E-1,0E0,0E0,0E0,0E0,1.0746276E1,0E0,0E0,0E0,0E0,0E0,0E0,0E0,0E0,3.5062602E0,0E0,0E0],"parents":[2147483647,0,0,1,1,2,2,3,3,4,4,5,5,6,6,7,7,8,8,9,9,10,10,12,12,13,13,14,14,18,18,23,23,32,32],"right_children":[2,4,6,8,10,12,14,16,18,20,22,-1,24,26,28,-1,-1,-1,30,-1,-1,-1,-1,32,-1,-1,-1,-1,-1,-1,-1,-1,34,-1,-1],"split_conditions":[-4.9084136E-1,-8.067488E-2,6.475566E-2,-2.5782537E-1,2.5810303E-2,-1.4008752E0,1.3004126E-1,-4.5473255E-2,-2.4176435E-1,-3.511122E-1,-9.032434E-3,-7.356046E-2,6.367282E-1,1.2677528E-1,1.4401105E-1,2.1047726E-2,6.0997675E-3,-5.3881924E-3,-7.140653E-2,1.4802495E-1,8.980387E-2,9.987465E-4,5.1375568E-2,-3.876412E-1,6.093173E-2,-9.647065E-2,-5.219481E-2,-1.9107504E-2,-1.1766148E-2,-1.8929608E-2,-3.648596E-2,4.448523E-2,-6.21803E-1,-1.942205E-2,2.6749403E-3],"split_indices":[18,7,1,4,24,15,1,1,1,2,1,0,5,1,1,0,0,0,1,0,0,0,0,5,0,0,0,0,0,0,0,0,4,0,0],"split_type":[0,0,0,0,0,0,0,0,0,0,0,0,0,0,0,0,0,0,0,0,0,0,0,0,0,0,0,0,0,0,0,0,0,0,0],"sum_hessian":[3.28E2,1.33E2,1.95E2,6.8E1,6.5E1,1.43E2,5.2E1,3.8E1,3E1,2.8E1,3.7E1,1.1E1,1.32E2,2.5E1,2.7E1,1.6E1,2.2E1,1.6E1,1.4E1,5E0,2.3E1,1.2E1,2.5E1,1.16E2,1.6E1,1.7E1,8E0,1.6E1,1.1E1,1.1E1,3E0,1.3E1,1.03E2,2.2E1,8.1E1],"tree_param":{"num_deleted":"0","num_feature":"31","num_nodes":"35","size_leaf_vector":"1"}},{"base_weights":[5.8079038E-2,4.0197656E-1,-1.962923E-1,5.5117875E-1,-2.0921593E0,-1.6141005E0,2.105348E0,-1.6946578E0,-2.3301857E0,-1.9147522E0,-6.9568515E-1,5.7223425E0,5.822827E-1,-1.1434531E0,-1.9134979E0,-2.0771158E0,-1.4164108E-1,-1.42974E0,-2.5299444E0,1.3774326E-1,-1.6100445E0,6.3332734E0,2.9822092E0,-1.4517034E0,3.3644567E0,-1.5356064E0,-5.8794945E-1,-5.3794097E-2,-1.0345539E-1,-1.6907167E0,-1.19743325E-1,-2.165786E-2,-8.257451E-2,-9.0781026E-2,-1.5207508E-1,-9.037552E-2,4.1629307E-2,-1.7002488E-2,-9.150192E-2,1.7379434E-1,3.4400055E-1,5.4565907E-2,1.8728842E-1,1.6770312E-1,-8.4816866E-2,-1.7823918E-2,2.152915E-1,-9.233094E-3,-8.649934E-2,4.1250613E-2,-4.8047256E-2,-8.896895E-2,2.0631792E-3],"categories":[],"categories_nodes":[],"categories_segments":[],"categories_sizes":[],"default_left":[0,0,0,0,0,0,0,0,0,0,0,0,0,0,0,0,0,0,0,0,0,0,0,0,0,0,0,0,0,0,0,0,0,0,0,0,0,0,0,0,0,0,0,0,0,0,0,0,0,0,0,0,0],"id":33,"left_children":[1,-1,3,5,7,9,11,13,15,17,19,21,23,25,27,29,-1,31,33,35,37,39,41,43,45,47,49,-1,-1,51,-1,-1,-1,-1,-1,-1,-1,-1,-1,-1,-1,-1,-1,-1,-1,-1,-1,-1,-1,-1,-1,-1,-1],"loss_changes":[6.573497E2,0E0,4.4612433E2,7.639358E2,4.4719543E0,2.4899689E1,7.238452E2,2.275154E0,8.57605E-1,1.7567505E1,1.9273098E1,4.6400146E1,5.368211E2,1.9290943E0,1.0324173E0,7.393341E-1,0E0,8.566322E0,5.4403076E0,2.0427946E1,2.7303925E0,2.4515259E1,8.906433E0,7.035053E1,1.4164655E2,1.5187168E0,4.4819913E0,0E0,0E0,3.2982063E0,0E0,0E0,0E0,0E0,0E0,0E0,0E0,0E0,0E0,0E0,0E0,0E0,0E0,0E0,0E0,0E0,0E0,0E0,0E0,0E0,0E0,0E0,0E0],"parents":[2147483647,0,0,2,2,3,3,4,4,5,5,6,6,7,7,8,8,9,9,10,10,11,11,12,12,13,13,14,14,15,15,17,17,18,18,19,19,20,20,21,21,22,22,23,23,24,24,25,25,26,26,29,29],"right_children":[2,-1,4,6,8,10,12,14,16,18,20,22,24,26,28,30,-1,32,34,36,38,40,42,44,46,48,50,-1,-1,52,-1,-1,-1,-1,-1,-1,-1,-1,-1,-1,-1,-1,-1,-1,-1,-1,-1,-1,-1,-1,-1,-1,-1],"split_conditions":[-1.3866289E0,4.0197656E-1,8.569486E-1,-5.237145E-1,-4.9084136E-1,6.475566E-2,-1.7854871E-1,1.2021143E0,5.5461742E-2,5.471862E-2,1.1001276E-1,2.6763338E-1,3.3919993E-1,1.0295315E0,-2.5172445E-1,1.3746972E0,-1.4164108E-1,-1.214046E0,-6.103491E-1,-1.214046E0,-1.214046E0,-7.8177977E-1,-5.9544045E-2,-4.3438435E-1,-7.8177977E-1,-4.831122E-1,-2.4176435E-1,-5.3794097E-2,-1.0345539E-1,4.24849E-2,-1.19743325E-1,-2.165786E-2,-8.257451E-2,-9.0781026E-2,-1.5207508E-1,-9.037552E-2,4.1629307E-2,-1.7002488E-2,-9.150192E-2,1.7379434E-1,3.4400055E-1,5.4565907E-2,1.8728842E-1,1.6770312E-1,-8.4816866E-2,-1.7823918E-2,2.152915E-1,-9.233094E-3,-8.649934E-2,4.1250613E-2,-4.8047256E-2,-8.896895E-2,2.0631792E-3],"split_indices":[0,0,0,0,18,1,0,0,1,5,9,17,0,0,5,0,0,0,15,0,0,24,4,5,24,4,1,0,0,1,0,0,0,0,0,0,0,0,0,0,0,0,0,0,0,0,0,0,0,0,0,0,0],"split_type":[0,0,0,0,0,0,0,0,0,0,0,0,0,0,0,0,0,0,0,0,0,0,0,0,0,0,0,0,0,0,0,0,0,0,0,0,0,0,0,0,0,0,0,0,0,0,0,0,0,0,0,0,0],"sum_hessian":[3.22E2,9E0,3.13E2,2.25E2,8.8E1,9.4E1,1.31E2,3.6E1,5.2E1,7E1,2.4E1,3.8E1,9.3E1,1.2E1,2.4E1,3.8E1,1.4E1,4.1E1,2.9E1,1.3E1,1.1E1,3E1,8E0,5.4E1,3.9E1,6E0,6E0,5E0,1.9E1,2E1,1.8E1,8E0,3.3E1,1.4E1,1.5E1,3E0,1E1,2E0,9E0,6E0,2.4E1,3E0,5E0,2E0,5.2E1,8E0,3.1E1,1E0,5E0,1E0,5E0,1.9E1,1E0],"tree_param":{"num_deleted":"0","num_feature":"31","num_nodes":"53","size_leaf_vector":"1"}},{"base_weights":[-9.504621E-2,-1.310571E-1,3.7781913E-2,-6.0681794E-2,1.372276E0,9.936093E-2,-7.47149E-1,4.651245E-2,1.0617186E-1,5.135901E-2,1.1341881E-1,-1.1226215E0,-7.4989493E-3,9.255596E-1,-2.346075E-2,-4.464186E-2,-7.2517045E-2,-2.6258469E-2,5.208945E-2,1.1136536E-3,-4.7246896E-2],"categories":[],"categories_nodes":[],"categories_segments":[],"categories_sizes":[],"default_left":[0,0,0,0,0,0,0,0,0,0,0,0,0,0,0,0,0,0,0,0,0],"id":34,"left_children":[1,-1,3,5,7,9,11,-1,-1,13,-1,15,-1,17,19,-1,-1,-1,-1,-1,-1],"loss_changes":[1.07470726E2,0E0,4.0160038E1,3.1385502E1,4.9973755E0,2.4038616E1,1.193956E1,0E0,0E0,1.4934619E1,0E0,1.1901398E0,0E0,3.5822258E0,8.913151E0,0E0,0E0,0E0,0E0,0E0,0E0],"parents":[2147483647,0,0,2,2,3,3,4,4,5,5,6,6,9,9,11,11,13,13,14,14],"right_children":[2,-1,4,6,8,10,12,-1,-1,14,-1,16,-1,18,20,-1,-1,-1,-1,-1,-1],"split_conditions":[-3.840804E-1,-1.310571E-1,7.79696E-1,1.1887487E0,-1.4186943E-1,1.0663382E0,4.8191044E-3,4.651245E-2,1.0617186E-1,-4.3438435E-1,1.1341881E-1,4.7318935E-1,-7.4989493E-3,-3.7414387E-2,3.8979456E-1,-4.464186E-2,-7.2517045E-2,-2.6258469E-2,5.208945E-2,1.1136536E-3,-4.7246896E-2],"split_indices":[20,0,2,18,1,5,1,0,0,5,0,2,0,1,24,0,0,0,0,0,0],"split_type":[0,0,0,0,0,0,0,0,0,0,0,0,0,0,0,0,0,0,0,0,0],"sum_hessian":[3.19E2,1.5E1,3.04E2,2.84E2,2E1,2.31E2,5.3E1,1.4E1,6E0,2.27E2,4E0,3.2E1,2.1E1,1.7E1,2.1E2,2.1E1,1.1E1,1E0,1.6E1,2.01E2,9E0],"tree_param":{"num_deleted":"0","num_feature":"31","num_nodes":"21","size_leaf_vector":"1"}},{"base_weights":[1.1596673E-1,4.0438843E-1,-1.5672205E-1,-1.822624E0,6.351068E-1,-1.2965099E0,-2.599421E0,5.2970285E0,-4.6846515E-1,-1.7948892E0,6.116229E-1,-1.5020968E0,-2.9517033E0,6.288963E0,2.8639472E0,1.0783236E0,-1.8937917E0,-1.404262E0,-3.0876923E0,4.7074757E0,-9.333801E-1,-6.347458E-1,-1.8564291E0,-3.725293E0,-1.1538839E-1,7.364155E0,2.1995886E-1,-2.8070375E-1,3.9479547E0,-1.3975991E0,3.9605746E0,-1.4692215E0,-2.1028183E0,-3.5882212E-2,-8.863929E-2,-8.9180976E-2,-2.1479277E-1,-6.581535E-2,3.5770863E-1,-6.915485E-2,-5.855026E-3,3.9136317E-2,-5.923977E-2,-1.6549492E-2,-1.0135324E-1,-2.4204345E-1,-1.2811981E-1,1.6401272E-1,4.0024862E-1,1.5481186E-2,2.1126735E-1,1.6037688E-1,-8.367752E-2,2.294377E-1,-6.7721404E-2,-4.2262226E-2,-8.143525E-2,-8.617992E-2,-1.19038664E-1],"categories":[],"categories_nodes":[],"categories_segments":[],"categories_sizes":[],"default_left":[0,0,0,0,0,0,0,0,0,0,0,0,0,0,0,0,0,0,0,0,0,0,0,0,0,0,0,0,0,0,0,0,0,0,0,0,0,0,0,0,0,0,0,0,0,0,0,0,0,0,0,0,0,0,0,0,0,0,0],"id":35,"left_children":[1,-1,3,5,7,9,11,13,15,17,19,21,23,25,27,29,31,33,35,37,39,41,43,45,-1,47,-1,-1,49,51,53,55,57,-1,-1,-1,-1,-1,-1,-1,-1,-1,-1,-1,-1,-1,-1,-1,-1,-1,-1,-1,-1,-1,-1,-1,-1,-1,-1],"loss_changes":[7.22976E2,0E0,4.2591077E2,3.9132935E1,1.1291853E3,6.1960144E1,1.1415527E1,8.335388E1,3.94475E2,2.1419281E1,9.2987335E1,2.5096054E0,6.3471375E0,2.6528442E1,1.5082747E2,6.192512E2,5.16391E0,9.102211E0,9.668686E0,6.837056E1,3.8760796E0,4.82577E0,1.4114151E0,3.1633759E0,0E0,1.8231262E1,0E0,0E0,1.1811905E1,6.509527E1,1.3976605E2,2.0068283E0,2.2208557E0,0E0,0E0,0E0,0E0,0E0,0E0,0E0,0E0,0E0,0E0,0E0,0E0,0E0,0E0,0E0,0E0,0E0,0E0,0E0,0E0,0E0,0E0,0E0,0E0,0E0,0E0],"parents":[2147483647,0,0,2,2,3,3,4,4,5,5,6,6,7,7,8,8,9,9,10,10,11,11,12,12,13,13,14,14,15,15,16,16,17,17,18,18,19,19,20,20,21,21,22,22,23,23,25,25,28,28,29,29,30,30,31,31,32,32],"right_children":[2,-1,4,6,8,10,12,14,16,18,20,22,24,26,28,30,32,34,36,38,40,42,44,46,-1,48,-1,-1,50,52,54,56,58,-1,-1,-1,-1,-1,-1,-1,-1,-1,-1,-1,-1,-1,-1,-1,-1,-1,-1,-1,-1,-1,-1,-1,-1,-1,-1],"split_conditions":[-1.3866289E0,4.0438843E-1,-5.237145E-1,-8.688803E-1,-1.7854871E-1,7.603992E-2,-3.163449E-1,6.475566E-2,8.569486E-1,6.367282E-1,9.212041E-2,-6.9629735E-1,-2.0237339E-1,-3.511316E-1,-4.7552168E-1,3.3919993E-1,-3.2521844E-1,-4.637354E-1,-4.7454193E-1,-1.214046E0,1.4243405E-2,-1.8673632E-1,-6.0034886E-2,-4.0076506E-1,-1.1538839E-1,-4.906036E-1,2.1995886E-1,-2.8070375E-1,-9.381047E-1,-4.3438435E-1,4.0658128E-1,-2.2891238E-1,1.3746972E0,-3.5882212E-2,-8.863929E-2,-8.9180976E-2,-2.1479277E-1,-6.581535E-2,3.5770863E-1,-6.915485E-2,-5.855026E-3,3.9136317E-2,-5.923977E-2,-1.6549492E-2,-1.0135324E-1,-2.4204345E-1,-1.2811981E-1,1.6401272E-1,4.0024862E-1,1.5481186E-2,2.1126735E-1,1.6037688E-1,-8.367752E-2,2.294377E-1,-6.7721404E-2,-4.2262226E-2,-8.143525E-2,-8.617992E-2,-1.19038664E-1],"split_indices":[0,0,0,0,0,1,6,1,0,5,1,0,4,0,3,0,21,26,3,0,4,1,9,3,0,6,0,0,6,5,17,17,0,0,0,0,0,0,0,0,0,0,0,0,0,0,0,0,0,0,0,0,0,0,0,0,0,0,0],"split_type":[0,0,0,0,0,0,0,0,0,0,0,0,0,0,0,0,0,0,0,0,0,0,0,0,0,0,0,0,0,0,0,0,0,0,0,0,0,0,0,0,0,0,0,0,0,0,0,0,0,0,0,0,0,0,0,0,0,0,0],"sum_hessian":[3.31E2,1E1,3.21E2,1.03E2,2.18E2,6.3E1,4E1,4.1E1,1.77E2,5E1,1.3E1,1.1E1,2.9E1,2.8E1,1.3E1,8.5E1,9.2E1,4E1,1E1,3E0,1E1,4E0,7E0,1.1E1,1.8E1,1.6E1,1.2E1,1E0,1.2E1,4.6E1,3.9E1,3.3E1,5.9E1,1.5E1,2.5E1,6E0,4E0,1E0,2E0,6E0,4E0,1E0,3E0,1E0,6E0,4E0,7E0,3E0,1.3E1,1E0,1.1E1,2E0,4.4E1,3.5E1,4E0,8E0,2.5E1,2.8E1,3.1E1],"tree_param":{"num_deleted":"0","num_feature":"31","num_nodes":"59","size_leaf_vector":"1"}},{"base_weights":[-2.2683477E-2,6.656798E0,-2.770679E-1,-4.2048644E-2,3.7074327E-1,3.5465303E-1,-1.8121594E0,-1.5283912E0,2.0591536E0,-1.4402497E0,-2.0472023E0,-1.2966408E0,-2.7654314E0,4.8421865E0,8.7504286E-1,-4.969279E-2,-1.514072E0,-2.2020938E0,-1.2415272E0,-1.3878862E0,5.6860507E-1,-1.5781631E0,-1.5808147E-1,5.831488E0,2.4600685E0,-9.4745684E-1,3.10616E0,2.083397E-3,-5.8103562E-3,-7.973671E-3,-1.5472698E0,-3.889605E-2,-1.1256949E-1,-1.3574044E0,-2.0689012E-3,-3.934594E-2,-1.18282616E-1,-2.2746077E-1,5.2599716E-1,-1.0090637E-2,-9.065353E-2,3.547253E-1,1.8469377E-1,-1.2418747E-2,1.9226685E-1,2.8271055E-2,-1.2104287E-1,1.89086E-1,-1.0544411E-1,-3.9116975E-2,-8.09219E-2,-1.663952E-2,-7.171368E-2],"categories":[],"categories_nodes":[],"categories_segments":[],"categories_sizes":[],"default_left":[0,0,0,0,0,0,0,0,0,0,0,0,0,0,0,0,0,0,0,0,0,0,0,0,0,0,0,0,0,0,0,0,0,0,0,0,0,0,0,0,0,0,0,0,0,0,0,0,0,0,0,0,0],"id":36,"left_children":[1,3,5,-1,-1,7,9,11,13,15,17,19,21,23,25,27,29,31,33,35,37,39,-1,41,43,45,47,-1,-1,-1,49,-1,-1,51,-1,-1,-1,-1,-1,-1,-1,-1,-1,-1,-1,-1,-1,-1,-1,-1,-1,-1,-1],"loss_changes":[5.557693E2,7.444153E1,3.0611374E2,0E0,0E0,7.221088E2,5.093689E0,2.7089493E1,3.8462238E2,3.9282684E0,4.0048065E0,1.6447098E1,2.5367355E0,6.813629E1,3.4450458E2,2.3072505E-2,1.4171295E0,1.337677E0,1.4736004E0,4.9847717E1,3.025033E2,1.5739908E0,0E0,3.8589905E1,4.597814E1,1.0613533E2,1.4185202E2,0E0,0E0,0E0,6.936264E-1,0E0,0E0,3.1030083E-1,0E0,0E0,0E0,0E0,0E0,0E0,0E0,0E0,0E0,0E0,0E0,0E0,0E0,0E0,0E0,0E0,0E0,0E0,0E0],"parents":[2147483647,0,0,1,1,2,2,5,5,6,6,7,7,8,8,9,9,10,10,11,11,12,12,13,13,14,14,15,15,16,16,17,17,18,18,19,19,20,20,21,21,23,23,24,24,25,25,26,26,30,30,33,33],"right_children":[2,4,6,-1,-1,8,10,12,14,16,18,20,22,24,26,28,30,32,34,36,38,40,-1,42,44,46,48,-1,-1,-1,50,-1,-1,52,-1,-1,-1,-1,-1,-1,-1,-1,-1,-1,-1,-1,-1,-1,-1,-1,-1,-1,-1],"split_conditions":[-1.3866289E0,-3.9072663E-1,8.569486E-1,-4.2048644E-2,3.7074327E-1,-5.237145E-1,1.2021143E0,7.2907895E-1,-1.7854871E-1,-1.3448179E0,1.6145279E-1,6.570234E-1,-1.7876075E-1,6.475566E-2,3.3919993E-1,1.0295315E0,-7.140473E-1,-7.140473E-1,1.8924459E0,-8.688803E-1,-6.9629735E-1,-1.214046E0,-1.5808147E-1,-3.511316E-1,-5.618777E-2,-1.1930002E-2,3.4032017E-1,2.083397E-3,-5.8103562E-3,-7.973671E-3,-8.743876E-1,-3.889605E-2,-1.1256949E-1,1.3746972E0,-2.0689012E-3,-3.934594E-2,-1.18282616E-1,-2.2746077E-1,5.2599716E-1,-1.0090637E-2,-9.065353E-2,3.547253E-1,1.8469377E-1,-1.2418747E-2,1.9226685E-1,2.8271055E-2,-1.2104287E-1,1.89086E-1,-1.0544411E-1,-3.9116975E-2,-8.09219E-2,-1.663952E-2,-7.171368E-2],"split_indices":[0,9,0,0,0,0,0,5,0,24,3,5,1,1,0,0,19,19,0,0,0,0,0,0,5,6,19,0,0,0,6,0,0,0,0,0,0,0,0,0,0,0,0,0,0,0,0,0,0,0,0,0,0],"split_type":[0,0,0,0,0,0,0,0,0,0,0,0,0,0,0,0,0,0,0,0,0,0,0,0,0,0,0,0,0,0,0,0,0,0,0,0,0,0,0,0,0,0,0,0,0,0,0,0,0,0,0,0,0],"sum_hessian":[3.25E2,1.1E1,3.14E2,1E0,1E1,2.23E2,9.1E1,1.06E2,1.17E2,3.8E1,5.3E1,9.1E1,1.5E1,3.4E1,8.3E1,2E0,3.6E1,4.3E1,1E1,8.7E1,4E0,5E0,1E1,2.3E1,1.1E1,4.6E1,3.7E1,1E0,1E0,1E0,3.5E1,2E0,4.1E1,9E0,1E0,5.5E1,3.2E1,3E0,1E0,1E0,4E0,1.3E1,1E1,4E0,7E0,2.3E1,2.3E1,3.3E1,4E0,4E0,3.1E1,1E0,8E0],"tree_param":{"num_deleted":"0","num_feature":"31","num_nodes":"53","size_leaf_vector":"1"}},{"base_weights":[1.5714599E-1,9.3238854E-1,-1.8171617E0,-5.73739E-1,2.104377E0,-1.9164475E0,-1.1412926E0,3.6269057E-1,-1.3250747E0,4.7077765E0,9.239284E-1,-1.6137717E0,-2.2335508E0,-1.3229961E0,-3.4047443E-2,-1.0997303E0,-1.3772526E-1,2.4923027E0,5.2705817E0,-1.1408685E0,3.2073312E0,-5.0353844E-2,-1.7908518E0,-9.248886E-1,-1.1424184E-1,-1.4359332E0,-2.0172119E-3,-4.1772842E-2,3.9219286E-2,-1.2340825E0,1.828659E0,2.0530747E-1,7.320468E-1,5.5877995E0,1.2517457E-1,-1.4933934E0,3.8569507E-1,-6.199273E-1,4.0998454E0,-5.838539E-2,-1.9839209E0,-6.2145807E-2,-7.2208405E-3,-4.0713426E-2,-8.3742306E-2,-3.40393E-2,-1.2009857E-1,-2.199875E-1,5.128471E-1,-1.9930057E-1,1.2364304E-1,8.4178925E-2,2.916397E-1,1.2328901E-1,-9.096888E-2,-3.686188E-1,1.18127E-1,-7.236239E-2,2.2399445E-1,-7.247568E-2,-1.1417512E-1],"categories":[],"categories_nodes":[],"categories_segments":[],"categories_sizes":[],"default_left":[0,0,0,0,0,0,0,0,0,0,0,0,0,0,0,0,0,0,0,0,0,0,0,0,0,0,0,0,0,0,0,0,0,0,0,0,0,0,0,0,0,0,0,0,0,0,0,0,0,0,0,0,0,0,0,0,0,0,0,0,0],"id":37,"left_children":[1,3,5,7,9,11,13,-1,15,17,19,21,23,25,27,29,-1,31,33,35,37,-1,39,41,-1,43,-1,-1,-1,45,47,-1,49,51,-1,53,-1,55,57,-1,59,-1,-1,-1,-1,-1,-1,-1,-1,-1,-1,-1,-1,-1,-1,-1,-1,-1,-1,-1,-1],"loss_changes":[4.8841476E2,4.0542987E2,3.8521423E0,6.036047E2,3.9209058E2,3.7859802E0,2.7716198E0,0E0,2.6927414E1,3.6739258E1,4.2798782E2,2.8161163E0,2.3583984E-1,1.680378E0,2.6230206E0,3.4518448E1,0E0,2.5401932E1,1.3221924E1,1.6135318E2,1.4942459E2,0E0,1.5332718E0,5.651367E-1,0E0,2.699871E-1,0E0,0E0,0E0,4.941368E1,2.5510718E2,0E0,5.913642E1,1.6005798E1,0E0,6.51457E1,0E0,1.9866815E2,8.026825E1,0E0,3.722992E-1,0E0,0E0,0E0,0E0,0E0,0E0,0E0,0E0,0E0,0E0,0E0,0E0,0E0,0E0,0E0,0E0,0E0,0E0,0E0,0E0],"parents":[2147483647,0,0,1,1,2,2,3,3,4,4,5,5,6,6,8,8,9,9,10,10,11,11,12,12,13,13,14,14,15,15,17,17,18,18,19,19,20,20,22,22,23,23,25,25,29,29,30,30,32,32,33,33,35,35,37,37,38,38,40,40],"right_children":[2,4,6,8,10,12,14,-1,16,18,20,22,24,26,28,30,-1,32,34,36,38,-1,40,42,-1,44,-1,-1,-1,46,48,-1,50,52,-1,54,-1,56,58,-1,60,-1,-1,-1,-1,-1,-1,-1,-1,-1,-1,-1,-1,-1,-1,-1,-1,-1,-1,-1,-1],"split_conditions":[8.569486E-1,-5.237145E-1,1.6145279E-1,-1.3866289E0,-1.7854871E-1,1.3746972E0,6.003987E-1,3.6269057E-1,7.2907895E-1,-8.272778E-1,3.3919993E-1,-4.7552168E-1,-1.368306E-1,1.8924459E0,1.2021143E0,6.570234E-1,-1.3772526E-1,-3.511316E-1,9.212041E-2,1.184812E0,-7.8177977E-1,-5.0353844E-2,-4.0726605E-1,1.5472801E0,-1.1424184E-1,1.3746972E0,-2.0172119E-3,-4.1772842E-2,3.9219286E-2,-8.688803E-1,-6.9629735E-1,2.0530747E-1,-6.569265E-1,-1.8673632E-1,1.2517457E-1,-4.3438435E-1,3.8569507E-1,-3.520704E-1,-4.3438435E-1,-5.838539E-2,1.0295315E0,-6.2145807E-2,-7.2208405E-3,-4.0713426E-2,-8.3742306E-2,-3.40393E-2,-1.2009857E-1,-2.199875E-1,5.128471E-1,-1.9930057E-1,1.2364304E-1,8.4178925E-2,2.916397E-1,1.2328901E-1,-9.096888E-2,-3.686188E-1,1.18127E-1,-7.236239E-2,2.2399445E-1,-7.247568E-2,-1.1417512E-1],"split_indices":[0,0,3,0,0,0,2,0,5,24,0,3,9,0,0,5,0,0,1,7,24,0,17,0,0,0,0,0,0,0,0,0,3,1,0,5,0,3,5,0,0,0,0,0,0,0,0,0,0,0,0,0,0,0,0,0,0,0,0,0,0],"split_type":[0,0,0,0,0,0,0,0,0,0,0,0,0,0,0,0,0,0,0,0,0,0,0,0,0,0,0,0,0,0,0,0,0,0,0,0,0,0,0,0,0,0,0,0,0,0,0,0,0,0,0,0,0,0,0,0,0,0,0,0,0],"sum_hessian":[3.17E2,2.28E2,8.9E1,1E2,1.28E2,7.6E1,1.3E1,8E0,9.2E1,3.9E1,8.9E1,4.2E1,3.4E1,1.1E1,2E0,8.1E1,1.1E1,9E0,3E1,4.7E1,4.2E1,1.1E1,3.1E1,2E0,3.2E1,1E1,1E0,1E0,1E0,7.8E1,3E0,4E0,5E0,2.6E1,4E0,4.6E1,1E0,8E0,3.4E1,9E0,2.2E1,1E0,1E0,4E0,6E0,5.4E1,2.4E1,2E0,1E0,1E0,4E0,2E0,2.4E1,3E0,4.3E1,2E0,6E0,